tree
version=v2
num_class=1
num_tree_per_iteration=1
label_index=0
max_feature_idx=158
objective=regression
feature_names=DASH:approval_rate DASH:approved DASH:submit_count DASH:total_earnings EXT:auto_refresh EXT:crowdworkers EXT:distill EXT:mturk_suite EXT:openturk EXT:page_monitor EXT:tampermonkey EXT:turkopticon INP:button INP:checkbox INP:date INP:email INP:file INP:hidden INP:number INP:password INP:radio INP:range INP:reset INP:select_option INP:submit INP:tel INP:text INP:textarea INP:time INP:url KW:answer KW:bonus KW:click KW:comment KW:comments KW:comprehension KW:copy KW:describe KW:description KW:design KW:example KW:identify KW:image KW:instructions KW:leave KW:minute KW:minutes KW:note KW:opinion KW:participation KW:paste KW:playback KW:qualify KW:questionnaires KW:read KW:research KW:return KW:summarize KW:survey KW:turkprime.com KW:type KW:video KW:watch META:duration_sec META:hits_available META:reward META:template_Categorization META:template_Data_Collect_From_Website META:template_Data_Collection META:template_Image_A/B META:template_Image_Tagging META:template_Image_Transcription META:template_No_template META:template_Other META:template_Survey META:template_Survey_Link META:template_Writing QTR:age QTR:earnings_per_hour QTR:employment_status_Employed_full_time QTR:employment_status_Employed_part_time QTR:employment_status_Prefer_not_to_say QTR:employment_status_Retired QTR:employment_status_Student QTR:employment_status_Unemployed_looking_for_work QTR:employment_status_Unemployed_not_looking_for_work QTR:gender_Female QTR:gender_Male QTR:gender_Prefer_not_to_say QTR:household_income QTR:school_level QTR:weekly_work_hours QTR:worker_experience REP:to1_comm REP:to1_fair REP:to1_fast REP:to1_pay REP:to1_reviews REP:to1_tos REP:to2_all_broken_0 REP:to2_all_broken_1 REP:to2_all_comm_0 REP:to2_all_comm_1 REP:to2_all_comm_2 REP:to2_all_pending REP:to2_all_recommend_0 REP:to2_all_recommend_1 REP:to2_all_recommend_2 REP:to2_all_rejected_0 REP:to2_all_rejected_1 REP:to2_all_rejected_2 REP:to2_all_reward_0 REP:to2_all_reward_1 REP:to2_all_reward_2 REP:to2_all_tos_0 REP:to2_all_tos_1 REP:to2_recent_broken_0 REP:to2_recent_broken_1 REP:to2_recent_comm_0 REP:to2_recent_comm_1 REP:to2_recent_comm_2 REP:to2_recent_pending REP:to2_recent_recommend_0 REP:to2_recent_recommend_1 REP:to2_recent_recommend_2 REP:to2_recent_rejected_0 REP:to2_recent_rejected_1 REP:to2_recent_rejected_2 REP:to2_recent_reward_0 REP:to2_recent_reward_1 REP:to2_recent_reward_2 REP:to2_recent_tos_0 REP:to2_recent_tos_1 URL:a_href_counts URL:all_url_counts URL:audio_src_counts URL:img_src_counts URL:qualtrics_url_counts URL:text_url_counts URL:video_src_counts WLEN:inner_html INP:button_perc INP:checkbox_perc INP:date_perc INP:email_perc INP:file_perc INP:hidden_perc INP:number_perc INP:password_perc INP:radio_perc INP:range_perc INP:reset_perc INP:select_option_perc INP:submit_perc INP:tel_perc INP:text_perc INP:textarea_perc INP:time_perc INP:url_perc
feature_infos=[0:100] [0:482] [0:132] [0:599.03999999999996] [0:1] [0:1] [0:1] [0:1] [0:1] [0:0] [0:1] [0:1] [0:38] [0:372] none [0:1] none [0:640] [0:20] none [0:500] [0:4] [0:1] [0:1844] [0:7] [0:1] [0:90] [0:32] none [0:2] [0:1] [0:1] [0:1] [0:1] [0:1] [0:1] [0:1] [0:1] [0:1] [0:1] [0:1] [0:1] [0:1] [0:1] [0:1] [0:1] [0:1] [0:1] [0:1] [0:1] [0:1] none [0:1] [0:1] [0:1] [0:1] [0:1] none [0:1] [0:1] [0:1] [0:1] [0:1] [60:604800] [0:163471] [0:9] [0:1] [0:1] [0:1] none [0:1] none [0:1] [0:1] [0:1] [0:1] [0:1] [1:6] [0:12] [0:1] [0:1] [0:1] [0:1] [0:1] [0:1] [0:1] [0:1] [0:1] none [0:11] [1:4] [0:9] [0:4] [0:5] [0:5] [0:5] [0:5] [1:1127] [0:28] [0:12] [1:137] [0:8] [0:36] [1:137] [0:2160000] [0:67] [0:90] [1:137] [0:41] [0:54] [1:137] [0:736.54999999999995] [0:933372563] [0:123] [0:3] [1:137] [0:4] [0:20] [0:2] [0:13] [0:20] [0:2592000] [0:12] [0:17] [0:20] [0:17] [0:19] [0:20] [0:60.100000000000001] [0:933338595] [0:15] [0:1] [0:20] [0:26] [0:26] [0:19] [0:331] [0:3] [0:9] [0:3] [0:5192] [0:1.52] [0:14.880000000000001] none [0:0.040000000000000001] none [0:25.600000000000001] [0:0.80000000000000004] none [0:20] [0:0.16] [0:0.040000000000000001] [0:73.760000000000005] [0:0.28000000000000003] [0:0.040000000000000001] [0:3.6000000000000001] [0:1.28] none [0:0.080000000000000002]
tree_sizes=2449 2540 2524 2547 2530 2541 2548 2551 2547 2548 2566 2580 2565 2550 2554 2570 2567 2581 2556 2574 2571 2584 2579 2573 2579 2563 2599 2567 2572 2597 2602 2602 2589 2580 2593 2590 2593 2618 2612 2587 2610 2636 2651 2612 2604 2611 2635 2589 2618 2594 2627 2626 2611 2600 2616 2628 2604 2613 2594 2626 2600 2588 2615 2618 2616 2585 2609 2604 2643 2615 2636 2604 2645 2596 2621 2622 2611 2604 2608 2618 2599 2649 2614 2575 2579 2613 2575 2631 2572 2615 2614 2615 2623 2625 2601 2607 2622 2598 2622 2636

Tree=0
num_leaves=31
num_cat=0
split_feature=65 65 78 2 96 3 65 97 101 67 65 96 96 96 136 3 123 140 77 64 96 140 91 65 140 64 20 96 65 121
split_gain=983.305 233.84 130.845 104.016 59.3827 46.0912 28.7286 20.6734 18.6518 17.9636 16.6913 16.6733 14.6129 14.0908 13.3769 12.9942 11.2258 10.7665 9.66398 9.61043 8.33354 7.13013 6.52361 5.41237 5.36091 5.26919 5.4419 5.06288 4.99977 4.76716
threshold=0.03500000000000001 0.50500000000000012 3.5000000000000004 1.0000000180025095e-35 2.6050000000000004 47.485000000000007 0.22000000000000003 24.500000000000004 1.0000000180025095e-35 1.0000000180025095e-35 1.0050000000000001 1.9650000000000001 2.3450000000000002 2.7350000000000008 8.5000000000000018 64.975000000000009 2.5000000000000004 523.50000000000011 1.5000000000000002 16504.500000000004 4.0100000000000007 322.50000000000006 2.5000000000000004 0.41000000000000009 123.50000000000001 5122.0000000000009 1.5000000000000002 4.3950000000000005 3.4500000000000006 15630.000000000002
decision_type=2 2 2 2 8 2 2 8 8 2 2 10 8 8 2 2 10 2 2 2 10 2 2 2 2 2 2 10 2 10
left_child=2 3 8 6 11 21 12 18 29 14 16 -5 -2 -8 -10 -13 27 25 -6 -7 22 -4 -14 -15 -18 26 -9 -3 -12 -1
right_child=1 10 5 4 7 19 13 17 9 -11 28 15 20 23 -16 -17 24 -19 -20 -21 -22 -23 -24 -25 -26 -27 -28 -29 -30 -31
leaf_value=2.1284461369752581 2.1506040954551873 2.1782635549617182 1.9998538020283432 2.092368019192874 2.0327438538288165 2.0853595469846402 2.1623455222921688 2.1043843212533169 2.0716342944186263 2.0040739295498966 2.1913959470687994 2.1371003752489317 2.1142449388049598 2.1383332509048043 2.1237570303799829 2.1735320043830062 2.1298958142630426 2.1361784954286311 2.0868616856475981 2.0393982947816225 2.0951667607413467 2.0314798666412996 2.136069404392547 2.1543920678966453 2.1683820043566984 2.1186115555375675 2.0767629205483278 2.1528063318165773 2.2291059348752382 2.0809395068485124
leaf_count=86 236 696 471 64 37 92 697 658 470 36 357 379 246 637 55 132 89 130 305 90 101 84 309 313 61 234 80 88 39 28
internal_value=0 0.179728 -0.749461 0.0720781 -0.0973269 -1.04079 0.206788 -0.205548 -0.431376 -0.50631 0.548652 0.174449 0.0622474 0.28507 -0.459452 0.234713 0.475708 -0.138891 -0.420331 -0.604085 -0.0145224 -1.184 0.033559 0.205843 0.225069 -0.175039 -0.216498 0.523662 0.720699 -0.0626212
internal_count=7300 5888 1412 4558 2019 737 2539 1444 675 561 1330 575 892 1647 525 511 934 1102 342 182 656 555 555 950 150 972 738 784 396 114
shrinkage=1


Tree=1
num_leaves=31
num_cat=0
split_feature=65 65 78 134 1 3 65 96 112 105 1 65 65 77 91 109 96 117 136 64 92 96 140 140 64 60 96 63 112 138
split_gain=796.477 189.411 105.985 85.5245 43.6847 37.3339 32.1724 23.6507 15.8285 15.5985 14.5145 13.5199 13.3062 12.8454 12.1346 10.947 9.59964 9.10087 9.08481 7.78445 6.38553 6.14978 5.77541 5.35888 4.7835 4.51111 4.41401 4.40651 4.36497 4.28126
threshold=0.03500000000000001 0.50500000000000012 3.5000000000000004 1.0000000180025095e-35 463.00000000000006 47.485000000000007 0.41000000000000009 2.9950000000000006 499.50000000000006 2.5000000000000004 7.0000000000000009 1.0050000000000001 0.065000000000000016 1.5000000000000002 3.5000000000000004 9.5000000000000018 2.6350000000000002 4.5000000000000009 6.5000000000000009 16504.500000000004 1.0000000180025095e-35 4.0100000000000007 322.50000000000006 90.500000000000014 9.5000000000000018 1.0000000180025095e-35 3.8750000000000004 1010.0000000000001 1075.0000000000002 1.0000000180025095e-35
decision_type=2 2 2 2 2 2 2 8 10 8 2 2 2 2 2 10 8 10 2 2 2 10 2 2 2 2 8 2 8 2
left_child=2 3 9 8 6 22 7 14 13 25 -11 17 23 -2 -5 -10 29 26 -12 -7 -17 -14 -4 -9 -15 -1 -3 -16 -13 -8
right_child=1 11 5 4 -6 19 16 12 15 10 18 28 21 24 27 20 -18 -19 -20 -21 -22 -23 -24 -25 -26 -27 -28 -29 -30 -31
leaf_value=-0.015298012461450496 -0.072171625760204805 0.052248159724557965 -0.11086754305920941 0.015235131122581461 -0.043305870528094287 -0.033912370191461857 0.081860879589529603 -0.063195591399798523 0.020557399939751437 -0.10706942793395785 -0.047246203875084491 0.048451405166567346 0.0092919372366176024 0.0006227485394585088 0.0030661608177559594 -0.01746913385409463 0.029584856444993521 0.021020525783804134 -0.011709655224085722 -0.075277497458996048 0.0002009893066039489 -0.010901996938847205 -0.082404083758592608 -0.014958157518269786 -0.029789724775734185 0.03355374285990062 0.035809715685999798 0.038238422319048296 0.071579301430847092 0.048485687267608372
leaf_count=89 65 541 471 944 121 92 51 37 121 36 440 115 797 66 39 601 353 159 86 90 310 186 84 61 239 24 234 411 281 156
internal_value=0 0.161755 -0.674515 0.0648703 0.156169 -0.936709 0.17966 0.130686 -0.140649 -0.388238 -0.456403 0.493787 0.0196782 -0.318103 0.216769 -0.0770271 0.396109 0.428137 -0.41436 -0.543677 -0.114562 0.0547091 -1.0656 -0.331702 -0.232087 -0.0492242 0.472848 0.351902 0.648629 0.567086
internal_count=7300 5888 1412 4558 3156 737 3035 2475 1402 675 562 1330 1081 370 1394 1032 560 934 526 182 911 983 555 98 305 113 775 450 396 207
shrinkage=0.1


Tree=2
num_leaves=31
num_cat=0
split_feature=65 65 78 2 96 3 65 97 96 121 105 63 1 96 26 140 65 77 65 64 138 91 2 95 0 97 112 30 78 63
split_gain=645.147 154.128 85.8477 76.0153 38.1775 30.2404 21.9708 14.2194 13.5944 12.976 12.6348 12.135 11.7567 9.6163 8.67917 8.61245 7.65809 6.66487 6.4482 6.40849 6.32416 5.76605 5.47916 5.00285 4.85492 4.68435 4.4699 4.13259 7.5475 4.0261
threshold=0.03500000000000001 0.62500000000000011 3.5000000000000004 1.0000000180025095e-35 2.6050000000000004 47.485000000000007 0.25500000000000006 24.500000000000004 2.9250000000000003 82800.000000000015 2.5000000000000004 1125.0000000000002 7.0000000000000009 2.6350000000000002 38.500000000000007 523.50000000000011 0.015000000000000001 1.5000000000000002 3.4500000000000006 16117.500000000002 1.0000000180025095e-35 3.5000000000000004 4.5000000000000009 2.5650000000000004 91.285000000000011 2.5000000000000004 724.50000000000011 1.0000000180025095e-35 3.5000000000000004 3900.0000000000005
decision_type=2 2 2 2 8 2 2 8 10 10 8 2 2 8 2 2 2 2 2 2 2 2 2 8 2 10 8 2 2 2
left_child=2 3 10 6 11 22 8 17 23 18 -1 -5 -12 -8 21 27 -14 -6 26 -7 -11 -13 -4 -2 -15 -18 -3 28 -9 -10
right_child=1 9 5 4 7 19 13 15 29 20 12 14 16 24 -16 -17 25 -19 -20 -21 -22 -23 -24 -25 -26 -27 -28 -29 -30 -31
leaf_value=-0.0044301767249393846 0.032625532446157499 0.039370318230466696 -0.065324513820210858 -0.025739794247066673 -0.07470801198804701 -0.028885308372075941 0.037318040020868887 -0.0061585452524567826 -0.0081225823304198735 0.010238237687437906 -0.096362483170297414 0.0081315962562662925 -0.044878039597249557 0.042615075959642042 0.065589878043612923 0.012268288270399139 -0.037714918269150299 -0.029765423652486966 0.095128431464686539 -0.066496599918788243 0.047174513028704956 0.032390609431824237 -0.099132071055501592 0.011940945360500372 0.017857105974248891 -0.0020719955141497094 0.054547543165946434 -0.024773487726114561 -0.036122871824268168 0.033139616802334786
leaf_count=113 144 273 53 69 37 85 485 591 437 127 36 332 377 87 37 136 67 305 33 97 73 139 502 622 884 82 671 283 98 25
internal_value=0 0.14558 -0.607064 0.0647096 -0.0814605 -0.843038 0.1751 -0.168033 0.076582 0.469267 -0.349415 0.136096 -0.410763 0.25819 0.189544 -0.113016 -0.372924 -0.346276 0.516773 -0.489309 0.2372 0.152908 -0.959036 0.158294 0.200754 -0.180994 0.501584 -0.145994 -0.104205 -0.0588978
internal_count=7300 5888 1412 4711 2027 737 2684 1450 1228 1177 675 577 562 1456 508 1108 526 342 977 182 200 471 555 766 971 149 944 972 689 462
shrinkage=0.1


Tree=3
num_leaves=31
num_cat=0
split_feature=65 65 78 123 134 3 1 96 65 2 140 3 91 104 94 2 64 67 78 65 64 65 2 64 140 91 65 26 63 96
split_gain=522.569 127.36 69.5366 47.6119 40.3421 24.4948 23.5427 15.8216 10.7077 10.3382 9.93696 9.15395 8.80904 8.19137 7.74503 6.78021 7.13046 6.03705 5.58401 5.33353 5.19088 5.06496 4.69552 4.58428 4.58 4.31504 4.24374 3.58196 3.40494 3.3308
threshold=0.03500000000000001 0.41000000000000009 3.5000000000000004 10.000000000000002 1.0000000180025095e-35 47.485000000000007 463.00000000000006 2.9950000000000006 1.0050000000000001 7.5000000000000009 61.500000000000007 3.4800000000000004 3.5000000000000004 86550.000000000015 4.4350000000000014 1.0000000180025095e-35 2667.5000000000005 1.0000000180025095e-35 3.5000000000000004 0.87500000000000011 16117.500000000002 0.24500000000000002 15.500000000000002 114.50000000000001 13.500000000000002 2.5000000000000004 0.24500000000000002 1.0000000180025095e-35 1010.0000000000001 3.2350000000000008
decision_type=2 2 2 10 2 2 2 8 2 2 2 2 2 8 8 2 2 2 2 2 2 2 2 2 2 2 2 2 2 8
left_child=2 4 9 8 11 23 7 12 14 13 26 -2 27 -1 -3 -13 -17 -11 -18 -16 -7 25 -5 -4 -21 -12 -9 -6 -14 -10
right_child=1 3 5 22 6 20 -8 10 29 17 21 15 28 -15 19 16 18 -19 -20 24 -22 -23 -24 -25 -26 -27 -28 -29 -30 -31
leaf_value=-0.0040098528645730099 -0.067319968855008488 0.044431373989711323 -0.063496679214662635 0.014010107680695836 0.0025396291303822244 -0.025996777774656522 -0.035038231245922945 -0.047422026008384174 0.06654728108551354 -0.03933385288594772 -0.016398753305256832 0.0047516744353431305 0.00081362795300754867 -0.036316782847238403 0.023481336667013464 -0.024488115509722751 -0.00065671242885871758 -0.087703116238117218 -0.034011740038792294 -0.0057886020768256417 -0.059846939334703475 0.011407205327511674 -0.0086920420216781546 -0.089933406461286891 0.042482886877190019 0.0035349912683568354 -0.0013052176744226488 0.016039625114014661 0.031731355550626422 0.046938540237875824
leaf_count=177 32 522 76 148 279 85 119 56 128 329 160 178 39 141 589 497 307 28 60 21 97 496 237 479 307 338 31 665 411 268
internal_value=0 0.131022 -0.546357 0.32007 0.0166037 -0.758734 0.0840847 0.104974 0.38715 -0.314473 0.0141804 -0.146381 0.175382 -0.183346 0.347077 -0.130203 -0.166816 -0.431275 -0.0610985 0.291725 -0.440378 0.0425453 0.000350181 -0.863132 0.393923 -0.0286942 -0.309896 0.120497 0.290518 0.532767
internal_count=7300 5888 1412 2220 3668 737 2594 2475 1835 675 1081 1074 1394 318 1439 1042 864 357 367 917 182 994 385 555 328 498 87 944 450 396
shrinkage=0.1


Tree=4
num_leaves=31
num_cat=0
split_feature=65 65 78 123 2 96 3 96 140 3 65 105 129 91 63 94 77 96 0 2 64 63 65 2 65 64 91 1 26 140
split_gain=423.281 103.162 56.3247 38.5656 33.641 24.2265 19.8408 12.6266 9.34499 8.68997 8.67328 7.93635 7.52524 7.26996 7.22002 6.27348 6.00856 5.9439 5.76749 5.19528 4.92994 4.77616 4.56995 4.47767 4.32016 4.26722 4.09316 4.08929 4.08807 3.97231
threshold=0.03500000000000001 0.41000000000000009 3.5000000000000004 10.000000000000002 1.0000000180025095e-35 2.6050000000000004 47.485000000000007 3.5950000000000002 371.50000000000006 64.975000000000009 1.0050000000000001 1.5000000000000002 346.00000000000006 2.5000000000000004 1125.0000000000002 4.4350000000000014 1.5000000000000002 2.3050000000000002 99.895000000000024 24.500000000000004 292.00000000000006 2160.0000000000005 0.22000000000000003 2.5000000000000004 0.87500000000000011 16504.500000000004 3.5000000000000004 429.00000000000006 3.5000000000000004 66.500000000000014
decision_type=2 2 2 10 2 8 2 10 2 2 2 8 10 2 2 8 2 8 2 2 2 2 2 2 2 2 2 2 2 2
left_child=2 4 8 10 7 14 23 17 11 13 15 -1 -9 18 -6 -3 -13 21 -7 -10 28 -2 -19 -4 -17 -8 -16 -5 -11 -26
right_child=1 3 6 27 5 9 25 12 19 20 -12 16 -14 -15 26 24 -18 22 -20 -21 -22 -23 -24 -25 29 -27 -28 -29 -30 -31
leaf_value=-0.0035533233188038723 0.0098577155949093661 0.039988236285217998 -0.043060304203203753 0.010581407337969646 -0.021705587909335907 -0.029231656636288274 -0.024489196060328497 -0.011815529732114445 0.0035847607481843888 -0.026833245495145909 0.047949046438963819 -0.07648769304519748 0.020316495136508059 -0.010095988616489254 0.0068480898733908717 0.021133202978749585 -0.036277584316948212 0.0028978537872273438 -0.065171160527433339 -0.034877351514995096 -0.0018395042679293647 0.03093282490035908 0.016044301525777023 -0.080012219483749231 0.011954895735292112 -0.055115392808285028 0.027193976755102052 -0.010036400289760506 0.012516479650061699 0.040606981928574558
leaf_count=69 163 522 35 188 69 316 92 337 118 178 396 41 93 187 331 589 397 465 52 50 376 316 613 520 59 90 141 197 31 269
internal_value=0 0.11792 -0.491722 0.288063 0.0149433 -0.0891769 -0.682861 0.103029 -0.283026 -0.171877 0.348435 -0.350757 -0.0486605 -0.261514 0.0850903 0.312369 -0.400415 0.144921 -0.343101 -0.078623 -0.0868369 0.237611 0.103735 -0.776819 0.262553 -0.39634 0.12926 0.000315162 -0.209967 0.354531
internal_count=7300 5888 1412 2220 3668 1681 737 1987 675 1140 1835 507 430 555 541 1439 438 1557 368 168 585 479 1078 555 917 182 472 385 209 328
shrinkage=0.1


Tree=5
num_leaves=31
num_cat=0
split_feature=65 65 78 123 2 96 3 96 26 63 3 67 91 96 91 65 2 96 112 0 13 94 63 46 95 64 37 2 64 79
split_gain=342.857 83.5611 45.623 31.2382 27.2492 19.6235 16.071 10.4762 8.067 7.58601 7.03887 7.03571 6.95142 6.51399 5.88867 5.52017 5.21974 4.91059 4.79479 4.67167 4.59025 4.38663 4.24978 4.15494 4.04434 3.99325 3.80794 4.30644 3.71956 3.67508
threshold=0.03500000000000001 0.41000000000000009 3.5000000000000004 10.000000000000002 1.0000000180025095e-35 2.6050000000000004 47.485000000000007 4.0100000000000007 2.5000000000000004 3900.0000000000005 64.975000000000009 1.0000000180025095e-35 3.5000000000000004 1.9650000000000001 2.5000000000000004 0.68000000000000005 31.500000000000004 2.6850000000000005 1092.0000000000002 99.895000000000024 6.5000000000000009 3.7550000000000003 645.00000000000011 1.0000000180025095e-35 3.4150000000000005 292.00000000000006 1.0000000180025095e-35 4.5000000000000009 19453.000000000004 1.0000000180025095e-35
decision_type=2 2 2 10 2 8 2 10 2 2 2 2 2 10 2 2 2 8 8 2 2 8 2 2 8 2 2 2 2 2
left_child=2 4 8 9 7 13 26 12 11 15 14 16 22 -6 19 20 21 -17 -11 -7 29 -1 -2 -19 -24 -12 27 -4 -8 -3
right_child=1 3 6 -5 5 10 28 -9 -10 18 25 -13 -14 -15 -16 17 -18 23 -20 -21 -22 -23 24 -25 -26 -27 -28 -29 -30 -31
leaf_value=-0.010446419970172904 -0.010559988150200926 0.026042323489325926 -0.038998952546777828 2.8364757384330811e-05 -0.022298595118627418 -0.026308490827832893 -0.027961710129587099 -0.01213555290085468 0.01360215337718932 0.024679280877656615 -0.018897014483308161 -0.071449071417252222 0.020680885205654531 0.011677473110224431 -0.0090863897910909378 0.047504850427563097 -0.039666246358265586 0.017610137485023034 0.050553688845276862 -0.058654043200210886 0.048612299891548201 -0.031559450376026206 0.021484818518202706 0.035327134958121557 0.0062631052022858735 -0.0016555539945252253 -0.098496168574621512 -0.070463003433341609 -0.062181732185730122 0.010564420002721606
leaf_count=230 119 335 48 385 64 316 141 205 49 96 209 36 584 477 187 196 188 202 282 52 57 172 219 384 860 376 43 464 41 283
internal_value=0 0.106128 -0.442549 0.259256 0.013449 -0.0802592 -0.614575 0.092726 -0.254723 0.313591 -0.15469 -0.285309 0.117354 0.0765812 -0.235363 0.280842 -0.259121 0.338028 0.439824 -0.308791 0.21459 -0.194799 0.0737463 0.292199 0.0935259 -0.0781532 -0.699137 -0.675132 -0.356706 0.189545
internal_count=7300 5888 1412 2220 3668 1681 737 1987 675 1835 1140 626 1782 541 555 1457 590 782 378 368 675 402 1198 586 1079 585 555 512 182 618
shrinkage=0.1


Tree=6
num_leaves=31
num_cat=0
split_feature=65 65 78 63 96 1 3 136 65 98 91 140 63 10 105 140 2 65 86 64 91 140 112 0 140 65 94 64 72 0
split_gain=277.714 68.4037 36.9546 29.5364 20.0755 13.3052 13.0175 10.9112 7.91715 8.22291 6.92117 6.91468 6.86348 6.30842 5.70691 5.31083 5.20847 4.55947 4.43989 4.36288 4.22149 4.13069 3.89671 3.58754 3.4728 3.31714 3.1964 3.10569 2.91966 2.85581
threshold=0.03500000000000001 0.25500000000000006 3.5000000000000004 2160.0000000000005 2.6350000000000002 463.00000000000006 47.485000000000007 1.0000000180025095e-35 0.70500000000000007 4.5000000000000009 2.5000000000000004 347.50000000000006 1125.0000000000002 1.0000000180025095e-35 1.5000000000000002 296.50000000000006 28.500000000000004 0.095000000000000015 1.0000000180025095e-35 39.500000000000007 3.5000000000000004 13.500000000000002 724.50000000000011 97.110000000000014 165.50000000000003 1.8100000000000003 1.8100000000000003 16759.000000000004 1.0000000180025095e-35 94.815000000000012
decision_type=2 2 2 2 8 2 2 2 2 8 2 2 2 10 8 2 2 2 2 2 2 2 8 2 2 2 8 2 2 2
left_child=2 4 11 5 12 23 24 10 9 -5 13 14 -2 -6 -1 -9 -13 -15 -16 -20 -14 -10 28 -3 -4 -24 -25 -8 -23 -27
right_child=1 3 6 8 7 -7 27 15 21 -11 -12 16 20 17 18 -17 -18 -19 19 -21 -22 22 25 26 -26 29 -28 -29 -30 -31
leaf_value=-0.0028398083780072077 -0.010950556256856514 0.024301468435110815 -0.069284543196065487 0.025816509224735568 -0.0035707701740080519 -0.010978228289015374 -0.020405190692532181 -0.029204984551369075 -0.0071409001226790938 -0.0015603927707512255 0.0060712565679879619 0.0015552594799608473 0.0079576887719249919 -0.067877706755762518 -0.023409564866489842 -0.010685736861216419 -0.03335638283357277 -0.019786399089312859 -0.033027879058569673 -0.063049430334115336 0.022946370899358214 0.009463139630182164 0.036410450732649265 0.035093077186495063 -0.053087228295658165 0.018418177850544455 0.00902220702395665 -0.046690405357950999 0.035127347910610757 0.05902960268823907
leaf_count=67 145 246 337 806 447 274 101 279 22 127 515 155 618 23 190 348 59 138 125 79 270 79 460 50 218 20 791 81 101 129
internal_value=0 0.0955149 -0.398295 0.197558 -0.0183343 0.0871517 -0.553117 -0.0835884 0.283717 0.2209 -0.0245872 -0.229251 0.0922124 -0.0968395 -0.29821 -0.189264 -0.0806991 -0.266566 -0.344092 -0.446539 0.125151 0.355984 0.367902 0.136793 -0.629224 0.406108 0.105722 -0.321036 0.238636 0.535784
internal_count=7300 5888 1412 3105 2783 1361 737 1750 1744 933 1123 675 1033 608 461 627 214 161 394 204 888 811 789 1087 555 609 841 182 180 149
shrinkage=0.1


Tree=7
num_leaves=31
num_cat=0
split_feature=65 65 78 123 2 27 0 96 97 26 129 3 78 1 133 67 53 104 91 27 65 91 95 64 1 2 34 64 65 140
split_gain=224.949 56.235 29.9332 20.9695 18.7449 13.9369 10.63 8.13727 5.89884 5.8468 5.62504 5.58631 6.6138 5.53122 4.87405 4.61587 4.06227 4.02507 3.79949 3.70255 3.58481 3.57895 3.53581 3.38768 3.19552 3.17862 3.00125 3.0972 2.95893 2.90485
threshold=0.03500000000000001 0.41000000000000009 3.5000000000000004 10.000000000000002 1.0000000180025095e-35 1.0000000180025095e-35 99.16500000000002 3.5950000000000002 6.5000000000000009 2.5000000000000004 585.00000000000011 4.3900000000000015 1.5000000000000002 7.0000000000000009 1.0000000180025095e-35 1.0000000180025095e-35 1.0000000180025095e-35 3667.5000000000005 3.5000000000000004 5.5000000000000009 1.2900000000000003 3.5000000000000004 4.3950000000000005 16117.500000000002 36.000000000000007 24.500000000000004 1.0000000180025095e-35 182.00000000000003 0.10500000000000002 137.50000000000003
decision_type=2 2 2 10 2 2 2 10 10 2 10 2 2 2 2 2 2 8 2 2 2 2 8 2 2 2 2 2 2 2
left_child=2 4 9 11 7 13 23 16 -7 15 28 -3 29 -6 -8 17 21 -1 -10 -19 -14 -2 24 -4 -15 -5 27 -24 -9 -13
right_child=1 3 6 25 5 8 14 10 18 -11 -12 12 20 22 -16 -17 -18 19 -20 -21 -22 -23 26 -25 -26 -27 -28 -29 -30 -31
leaf_value=0.012285592226201998 0.006837848518776616 -0.010008742274759813 -0.011575037327735391 0.009637107184583632 -0.057126019895076756 -0.020467080625271656 -0.058429826236571426 -0.029405767400749031 0.0046563024717586653 0.012633106136238394 0.019880329546905669 0.027081236891103741 0.018254287793587117 0.0012695079377616745 -0.014892914328646402 -0.057999223305119411 0.048677128047815398 -0.025806738385027107 0.024505005794520859 0.001981829029929666 0.033983221824812726 0.017119633370285475 -0.020450226801416178 -0.040093666603116647 -0.019795713280622938 -0.008573991942032037 -0.043377042822539812 0.00041819199969686868 -0.0056419787145780475 0.039166221555284653
leaf_count=34 1023 43 73 180 28 73 540 64 358 49 77 389 820 83 27 36 28 503 132 53 176 506 89 97 544 205 20 354 289 407
internal_value=0 0.0859634 -0.358465 0.211583 0.00993408 -0.0677875 -0.497806 0.0756864 0.0605243 -0.206326 -0.0460864 0.2561 0.264647 -0.132402 -0.563566 -0.232364 0.109317 -0.211153 0.100033 -0.231578 0.210337 0.102405 -0.121129 -0.278474 -0.170072 -0.000597118 -0.0548503 -0.0377433 -0.0995043 0.332604
internal_count=7300 5888 1412 2220 3668 1681 737 1987 563 675 430 1835 1792 1118 567 626 1557 590 490 556 996 1529 1090 170 627 385 463 443 353 796
shrinkage=0.1


Tree=8
num_leaves=31
num_cat=0
split_feature=65 65 78 63 96 1 0 0 10 98 63 140 3 65 105 78 65 133 3 97 52 1 3 77 1 3 94 33 64 60
split_gain=182.208 46.5096 24.2459 21.1017 14.2287 8.75489 8.61033 7.20586 5.99139 5.93411 5.33238 4.82452 4.37544 4.36421 4.21181 4.15793 3.94958 3.94798 3.35681 3.1725 3.15726 3.06733 3.02362 2.88454 2.86449 2.84463 2.83353 4.37649 2.74402 2.67129
threshold=0.03500000000000001 0.28000000000000008 3.5000000000000004 2160.0000000000005 2.6350000000000002 412.00000000000006 99.16500000000002 98.615000000000023 1.0000000180025095e-35 3.5000000000000004 1125.0000000000002 371.50000000000006 4.3900000000000015 0.10500000000000002 1.5000000000000002 1.5000000000000002 0.075000000000000025 1.0000000180025095e-35 3.4800000000000004 1.5000000000000002 1.0000000180025095e-35 398.00000000000006 72.88000000000001 3.5000000000000004 171.50000000000003 60.940000000000005 3.6500000000000004 1.0000000180025095e-35 16117.500000000002 1.0000000180025095e-35
decision_type=2 2 2 2 8 2 2 2 10 8 2 2 2 2 8 2 2 2 2 10 2 2 2 2 2 2 10 2 2 2
left_child=2 4 11 5 10 26 28 13 18 12 23 14 -5 -6 -1 -14 -10 -8 -9 -12 21 -11 -18 -2 -20 -17 -3 -28 -4 -13
right_child=1 3 6 9 7 -7 17 8 16 20 19 29 15 -15 -16 25 22 -19 24 -21 -22 -23 -24 -25 -26 -27 27 -29 -30 -31
leaf_value=-0.00047215856746702961 -0.017796371699376774 0.022409951992841425 -0.010417533512801341 -0.0080928375815144844 -0.00700008705035721 -0.0072939086964087631 -0.052586842910214163 -0.038639084831811492 -0.060416155079236401 0.0093992586646305595 0.032684030346572406 -0.013526430420296373 0.033420170231413901 0.008963772289016507 -0.027053502531611619 0.015406147963173959 -0.022998503583790131 -0.013403622599111665 0.0084671397214023721 0.0088972464233836712 0.03399324564282627 -0.030609447145391079 0.010334217531684167 0.014707917870125837 -0.0084684076267991151 0.027634269214599768 0.0021164794931744697 0.016599488777703505 -0.03608429907081822 0.012605189568139689
leaf_count=69 113 193 73 36 343 327 540 32 26 219 60 106 607 342 438 334 293 27 121 856 48 21 30 36 572 442 441 396 97 62
internal_value=0 0.0773671 -0.322619 0.162692 -0.0152091 0.0696152 -0.448025 -0.0704413 -0.121557 0.236684 0.0760148 -0.185693 0.263247 0.0097019 -0.234359 0.272206 -0.229208 -0.50721 -0.0697359 0.104553 0.10581 0.058985 -0.199026 -0.0994299 -0.0551141 0.223711 0.114873 0.0896866 -0.250627 -0.0388262
internal_count=7300 5888 1412 3064 2824 1357 737 1759 1074 1707 1065 675 1419 685 507 1383 349 567 725 916 288 240 323 149 693 776 1030 837 170 168
shrinkage=0.1


Tree=9
num_leaves=31
num_cat=0
split_feature=65 65 78 2 140 96 0 121 65 26 97 26 77 65 91 65 91 63 106 121 72 93 63 96 0 89 64 58 100 78
split_gain=147.589 38.9959 19.6392 18.3487 9.86706 7.10353 6.97437 6.3552 5.93772 5.07156 6.47373 4.08854 4.08054 3.60926 3.54977 3.51568 3.47481 3.22785 4.44683 3.21621 3.133 3.23632 3.13077 3.67835 3.07581 3.06141 4.14415 3.0261 3.16449 2.98597
threshold=0.03500000000000001 0.62500000000000011 3.5000000000000004 1.0000000180025095e-35 523.50000000000011 2.3050000000000002 99.16500000000002 82800.000000000015 0.22000000000000003 5.5000000000000009 24.500000000000004 2.5000000000000004 2.5000000000000004 0.015000000000000001 1.5000000000000002 3.4500000000000006 2.5000000000000004 2160.0000000000005 3.5000000000000004 21690.000000000004 1.0000000180025095e-35 1.0450000000000002 3900.0000000000005 4.0100000000000007 95.25500000000001 3.5000000000000004 39.500000000000007 1.0000000180025095e-35 7.5000000000000009 2.5000000000000004
decision_type=2 2 2 2 2 8 2 10 2 2 10 2 2 2 2 2 2 2 8 8 2 10 2 10 2 2 2 2 8 2
left_child=2 3 11 5 9 14 -4 15 22 10 16 13 -10 25 24 20 -5 -16 -19 -8 21 -3 23 29 -2 -1 -27 28 -6 -7
right_child=1 7 6 4 27 8 19 -9 12 -11 -12 -13 -14 -15 17 -17 -18 18 -20 -21 -22 -23 -24 -25 -26 26 -28 -29 -30 -31
leaf_value=-0.011918431196491913 -0.030328627357569832 0.0098428019672853542 -0.022556419147945504 -0.029942003077765601 -0.016916584104506506 0.0041981390007316891 -0.027714139328283423 0.0070036675072624351 0.0062692588386786818 0.0065063309739914494 -0.0059441845096428669 0.011105315640036549 0.018974180492217968 -0.0058215956062172792 0.0095080410490690423 0.058652996249271165 -0.011084457188025936 0.037519333264816067 0.014666375766319108 -0.048811642744269752 0.029255190254132375 0.033101305229698917 0.025023579183034602 -0.022085342102837649 0.010488809595699422 -0.019898490308075705 -0.043611722628120332 0.033851140843970437 0.0089290836433668311 -0.01190588696524642
leaf_count=157 24 202 170 211 54 381 85 200 1070 204 948 49 331 158 157 33 182 182 160 482 657 85 40 94 80 191 120 42 386 165
internal_value=0 0.0696304 -0.290357 0.0289526 -0.0428616 0.0831879 -0.403223 0.232445 0.055495 -0.0818313 -0.104178 -0.167124 0.0927092 -0.188898 0.178758 0.265692 -0.21209 0.213786 0.268279 -0.456489 0.254476 0.167312 -0.0211773 -0.0381407 0.010694 -0.233017 -0.290483 0.0820514 0.0575712 -0.00668462
internal_count=7300 5888 1412 4711 2027 2684 737 1177 2081 1545 1341 675 1401 626 603 977 393 499 342 567 944 287 680 640 104 468 311 482 440 546
shrinkage=0.1


Tree=10
num_leaves=31
num_cat=0
split_feature=65 65 78 123 96 2 0 63 63 79 105 96 91 5 64 91 26 133 112 64 1 32 96 94 61 2 7 37 64 93
split_gain=119.547 31.7947 15.9077 11.7653 10.2864 9.04092 5.64924 4.51884 4.40578 3.91152 3.84608 3.77026 3.46045 3.41883 3.23342 4.32818 3.16655 3.13932 3.06125 3.03526 2.92505 2.9388 2.79539 3.43813 2.58166 2.55354 2.54092 2.46881 2.41015 2.38686
threshold=0.03500000000000001 0.41000000000000009 3.5000000000000004 10.000000000000002 2.6250000000000004 1.0000000180025095e-35 99.16500000000002 1125.0000000000002 5370.0000000000009 1.0000000180025095e-35 2.5000000000000004 4.0100000000000007 3.5000000000000004 1.0000000180025095e-35 5122.0000000000009 2.5000000000000004 3.5000000000000004 1.0000000180025095e-35 1092.0000000000002 942.50000000000011 92.000000000000014 1.0000000180025095e-35 3.2550000000000003 4.9750000000000005 1.0000000180025095e-35 31.500000000000004 1.0000000180025095e-35 1.0000000180025095e-35 19453.000000000004 1.0000000180025095e-35
decision_type=2 2 2 10 8 2 2 2 2 2 8 10 2 10 2 2 2 2 8 2 2 2 8 10 2 2 8 2 2 8
left_child=2 4 10 8 7 11 28 -2 9 -3 -1 20 -9 -11 15 16 -7 27 29 25 21 -6 -20 -24 -17 -12 -22 -8 -4 -10
right_child=1 3 6 -5 5 14 17 12 18 13 19 -13 -14 -15 -16 24 -18 -19 22 -21 26 -23 23 -25 -26 -27 -28 -29 -30 -31
leaf_value=0.001792804063380226 -0.0062957932333199259 0.02135465568613815 -0.013588122695742189 -0.00018085295765724204 0.029419974864491924 -0.025492273060442418 -0.04075897734109088 0.0063317840527351912 -0.0020365293080709421 0.0088822689724310632 -0.01057260421879402 -0.0098169195567393997 0.0183277576094594 0.035116945400282193 0.00056235301361914154 -0.008481241621021058 -0.0056396124262193389 -0.0078072072179229167 0.043555675988674776 -0.040966478912849671 0.0064224170406733342 0.0050767002136646103 0.010004855265732034 0.043481016765330359 0.016900608596849703 -0.025240812479474007 -0.0052202331446440098 -0.065735264780909519 -0.041421080828167318 0.029506417883044863
leaf_count=113 195 790 129 385 89 298 497 741 49 620 319 205 356 54 239 449 110 27 147 54 544 112 77 51 44 189 286 43 41 47
internal_value=0 0.0626673 -0.261321 0.157124 0.00549907 -0.0335513 -0.3629 0.0773131 0.190469 0.165803 -0.150412 0.0256902 0.102247 0.109842 -0.0977816 -0.125211 -0.201398 -0.41084 0.287806 -0.184259 0.0503179 0.158556 0.341476 0.23343 -0.0621592 -0.160299 0.0241061 -0.427478 -0.203008 0.134064
internal_count=7300 5888 1412 2220 3668 2376 737 1292 1835 1464 675 1236 1097 674 1140 901 408 567 371 562 1031 201 275 128 493 508 830 540 170 96
shrinkage=0.1


Tree=11
num_leaves=31
num_cat=0
split_feature=65 65 78 2 140 91 121 0 63 97 96 140 1 95 78 111 30 13 26 96 32 53 3 1 102 133 10 0 1 79
split_gain=96.833 26.6575 12.8853 12.2299 6.47713 5.43387 4.63865 4.57588 4.50912 3.88642 3.72023 3.43497 3.31686 3.31528 2.88178 2.79005 2.78652 3.21929 2.7412 3.44363 2.62863 2.54662 2.61017 4.81067 3.21389 2.54285 2.42932 2.29974 2.29 2.25895
threshold=0.03500000000000001 0.62500000000000011 3.5000000000000004 1.0000000180025095e-35 523.50000000000011 3.5000000000000004 82800.000000000015 99.16500000000002 645.00000000000011 208.50000000000003 3.3250000000000006 347.50000000000006 8.5000000000000018 3.7950000000000004 1.5000000000000002 0.14500000000000005 1.0000000180025095e-35 2.5000000000000004 3.5000000000000004 1.0000000180025095e-35 1.0000000180025095e-35 1.0000000180025095e-35 4.3900000000000015 67.500000000000014 1.0000000180025095e-35 1.0000000180025095e-35 1.0000000180025095e-35 99.420000000000016 86.500000000000014 1.0000000180025095e-35
decision_type=2 2 2 2 2 2 10 2 2 10 8 2 2 8 2 10 2 2 2 10 2 2 2 2 8 2 10 2 2 2
left_child=2 3 11 5 9 8 14 -4 -2 12 21 13 -5 -1 -3 -13 17 18 19 -14 -16 22 24 -24 -10 -9 -6 28 -12 -22
right_child=1 6 7 4 26 -7 -8 25 10 -11 27 15 16 -15 20 -17 -18 -19 -20 -21 29 -23 23 -25 -26 -27 -28 -29 -30 -31
leaf_value=-0.0079924100582265175 -0.012901259790365863 0.027941852021355192 -0.018270699835933664 -0.043595808664602893 -0.0016483529728436889 0.013342473245327108 0.0052263513632351535 -0.03847304722535666 -0.044297618436671439 0.0020844661018969268 0.034286652383920944 0.019060802295377169 -0.040452182216241084 -0.02530896942596042 0.023291507187211926 -0.0089588623615147103 -0.015255486677531944 0.03266998258504001 0.0050884662637712833 -0.0075649916382014813 0.017966438383265278 0.036047122157602147 0.027165914381602929 0.0062530071293536204 0.0087681787759065627 -0.0070264860435768411 0.012693802141743205 -0.0089142308757110527 0.0017457410658507347 -0.0015847589102547582
leaf_count=184 151 440 170 28 207 845 200 540 21 377 23 45 34 277 298 169 418 22 165 501 132 33 126 866 25 27 275 232 362 107
internal_value=0 0.0564006 -0.235189 0.0227683 -0.0358616 0.0670465 0.191016 -0.32661 0.0365464 -0.0674352 0.0513564 -0.13537 -0.0959296 -0.183974 0.219419 -0.0306688 -0.087578 -0.0499598 -0.0617977 -0.0965502 0.170258 0.086989 0.0782944 0.0890928 -0.154575 -0.369756 0.0653441 -0.0104951 0.0368974 0.0921339
internal_count=7300 5888 1412 4711 2027 2684 1177 737 1839 1545 1688 675 1168 461 977 214 1140 722 700 535 537 1071 1038 992 46 567 482 617 385 239
shrinkage=0.1


Tree=12
num_leaves=31
num_cat=0
split_feature=65 65 1 78 96 63 136 63 140 20 63 45 3 89 136 111 63 77 79 91 1 140 114 91 3 65 112 134 1 7
split_gain=78.4348 22.5369 10.5578 10.4371 6.86156 5.0116 4.72399 4.00447 3.98457 4.05552 3.55372 3.36754 3.33487 3.89078 3.16281 3.12861 3.04471 2.45827 2.40235 2.37824 2.37009 2.31234 2.24893 2.70892 2.15393 2.50187 2.12811 2.12703 2.09943 2.3314
threshold=0.03500000000000001 0.30500000000000005 463.00000000000006 3.5000000000000004 2.6250000000000004 2160.0000000000005 1.0000000180025095e-35 16200.000000000002 81.500000000000014 5.5000000000000009 270.00000000000006 1.0000000180025095e-35 4.3900000000000015 7.5000000000000009 12.500000000000002 0.055000000000000007 1125.0000000000002 3.5000000000000004 1.0000000180025095e-35 2.5000000000000004 58.500000000000007 121.50000000000001 1.0000000180025095e-35 3.5000000000000004 43.310000000000009 2.8750000000000004 2839.0000000000005 1.0000000180025095e-35 92.000000000000014 1.0000000180025095e-35
decision_type=2 2 2 2 8 2 2 2 2 2 2 2 2 2 2 8 2 2 2 2 2 2 10 2 2 2 10 2 2 8
left_child=3 4 5 14 16 21 7 10 -5 -10 -6 12 -7 20 15 -1 17 -2 -11 -8 -14 26 23 -18 -22 -26 -3 -15 -12 -30
right_child=1 2 -4 8 6 11 19 -9 9 18 28 -13 13 27 -16 -17 22 -19 -20 -21 24 -23 -24 -25 25 -27 -28 -29 29 -31
leaf_value=0.0077178039973409013 -0.013171911488910368 -0.002069470855158529 -0.0066599336636136292 -0.041568580914984152 -0.042096526101231574 -0.013178550401845804 -0.019599622272081826 -0.04532337419688702 0.018128672242164613 -0.016819504172747544 0.011480254501556139 0.030601854957144198 0.030749194266427367 -0.014492474701255559 0.0091515483608144137 -0.016693013884918933 0.0050002834461824932 0.015379074987215111 -0.03138322613409731 -0.0067864428815522758 0.0039255056150474593 0.012018124860774464 -0.019202126017771663 0.016656343034745735 0.018252035148042422 0.049827451287553864 0.017704550596649077 0.010081090898434553 0.0017042749834817869 -0.0081289719158649711
leaf_count=58 133 290 280 197 20 39 224 20 21 167 151 169 160 40 63 554 643 39 352 410 103 539 30 289 720 26 67 295 867 334
internal_value=0 0.0507605 0.117347 -0.21167 -0.00672274 0.138386 -0.0415849 -0.00899677 -0.293949 -0.249538 -0.00252101 0.172765 0.156482 0.164847 -0.121833 -0.143796 0.0555619 -0.0669814 -0.26697 -0.113135 0.195849 0.0788374 0.077472 0.0861466 0.174809 0.193525 0.0164162 0.0714693 0.003669 -0.0103037
internal_count=7300 5888 2728 1412 3160 2448 2026 1392 737 540 1372 1552 1383 1344 675 612 1134 172 519 634 1009 896 962 932 849 746 357 335 1352 1201
shrinkage=0.1


Tree=13
num_leaves=31
num_cat=0
split_feature=65 65 2 63 96 2 98 0 64 65 119 77 122 140 65 13 65 63 140 64 45 96 64 3 89 1 95 121 140 129
split_gain=63.5322 18.4787 8.66156 8.6311 5.50355 3.99112 3.80987 3.78792 4.3974 3.62779 4.11448 3.65966 3.2421 3.45363 3.06791 3.02115 2.73691 2.73279 2.6422 2.60009 2.53059 2.50185 2.5399 2.36089 2.39933 2.49761 2.30496 2.13477 2.22174 3.18892
threshold=0.03500000000000001 0.28000000000000008 7.5000000000000009 2160.0000000000005 2.8150000000000004 14.500000000000002 7.5000000000000009 99.16500000000002 39.500000000000007 0.085000000000000006 1.0000000180025095e-35 1.5000000000000002 1.0000000180025095e-35 42.500000000000007 3.4500000000000006 2.5000000000000004 0.95000000000000007 3900.0000000000005 35.500000000000007 5.5000000000000009 1.0000000180025095e-35 3.5950000000000002 281.00000000000006 4.3900000000000015 8.5000000000000018 58.500000000000007 4.3850000000000007 62400.000000000007 61.500000000000007 377.50000000000006
decision_type=2 2 2 2 10 2 8 2 2 2 10 2 8 2 2 2 2 2 2 2 2 10 2 2 2 2 8 10 2 10
left_child=2 4 12 5 9 -3 14 -4 -9 10 11 -2 26 -14 20 17 -8 18 21 -17 23 -6 -23 -5 25 -25 -1 28 -11 -30
right_child=1 3 7 6 15 -7 16 8 -10 27 -12 -13 13 -15 -16 19 -18 -19 -20 -21 -22 22 -24 24 -26 -27 -28 -29 29 -31
leaf_value=0.016414757610764354 -0.03803868427872658 0.0067093273250317456 -0.014243244650790951 -0.010784112158659343 0.032891496173713522 -0.0068375130191912735 -0.0083324695378490885 -0.013119684013623843 -0.03233192860264629 -0.0098151808116035393 0.0058215472675663864 -0.0061637820770435977 -0.053022091034799816 -0.01007692170706356 0.045910048627239824 -0.006529102811501139 0.020345087290216397 0.025486401543021203 -0.010311101218596061 0.041652890108525756 0.027427677628802483 -0.031106943923693439 0.0022723175982969838 0.02873580981508694 0.0072812967570692003 0.015063850470015218 -0.011875398216976061 -0.0094688346842303883 0.007445308855187651 0.026834417862000359
leaf_count=80 40 1085 270 37 23 272 114 152 551 61 323 362 20 294 34 21 47 25 933 24 160 26 185 159 319 837 45 72 631 98
internal_value=0 0.0456845 -0.190503 0.0994669 -0.0126687 0.0399397 0.146789 -0.243112 -0.281779 0.0263063 -0.0258273 -0.0933541 -0.0739013 -0.128123 0.162034 -0.0626713 0.000392396 -0.0722734 -0.0792815 0.19168 0.155354 0.0157309 -0.0184077 0.141281 0.14829 0.172464 0.062303 0.0701541 0.0851777 0.100518
internal_count=7300 5888 1412 3064 2824 1357 1707 973 703 1587 725 402 439 314 1546 1237 161 1192 1167 45 1512 234 211 1352 1315 996 125 862 790 729
shrinkage=0.1


Tree=14
num_leaves=31
num_cat=0
split_feature=65 65 64 2 140 96 2 0 121 133 90 91 94 140 112 96 65 104 26 37 0 1 94 2 63 106 137 38 65 129
split_gain=51.461 15.0975 7.39301 7.26215 4.18248 4.14999 3.6496 3.49566 3.4245 3.19944 3.04319 2.93584 2.7645 2.70587 2.55177 2.8267 2.54312 2.47433 2.52836 2.44247 2.39057 2.37902 2.30685 2.50283 2.27691 3.37023 2.20871 2.1883 2.17366 2.08488
threshold=0.03500000000000001 0.68000000000000005 505.00000000000006 1.0000000180025095e-35 263.50000000000006 2.2050000000000005 21.500000000000004 96.870000000000019 82800.000000000015 1.0000000180025095e-35 3.5000000000000004 1.5000000000000002 4.0450000000000008 81.500000000000014 1006.0000000000001 4.9400000000000004 1.8100000000000003 18307.000000000004 3.5000000000000004 1.0000000180025095e-35 95.25500000000001 368.00000000000006 3.6800000000000002 9.5000000000000018 2160.0000000000005 3.5000000000000004 1.0000000180025095e-35 1.0000000180025095e-35 0.14500000000000005 757.50000000000011
decision_type=2 2 2 2 2 8 2 2 10 2 2 2 8 2 10 10 2 8 2 2 2 2 8 2 2 8 2 2 2 8
left_child=2 3 6 5 10 11 12 27 14 22 17 20 -1 -14 15 21 -16 -5 -19 -4 -2 -3 -6 -24 -13 26 -26 -7 -11 -9
right_child=1 8 19 4 9 7 -8 29 -10 28 -12 24 13 -15 16 -17 -18 18 -20 -21 -22 -23 23 -25 25 -27 -28 -29 -30 -31
leaf_value=0.0048502368785838992 -0.030403929149179023 0.017873912071867819 -0.023131654023255309 0.00034495324776195023 -0.022707768670957668 0.0059241645883674806 -0.018627144062267297 -0.0023887501435670283 0.0025702676634537058 0.0045098081057993178 -0.043122531414031988 0.0055502491709294513 -0.04394067290426313 -0.007937954090828224 0.018658193306203046 -0.0073703891961486084 0.03748465000307593 -0.016074614393015631 0.00091904246244290527 -0.047251920633845861 0.005742050676270957 -0.0034902490302920345 0.0066262429511336225 -0.0061054489792499965 0.0097844737877206111 0.0095483856864047017 0.036332116825015921 0.020028052561946452 0.026255006810613709 0.0048763929052791644
leaf_count=186 24 397 626 253 58 379 306 933 200 466 25 145 23 226 326 64 92 357 116 45 77 60 229 474 41 148 133 155 51 685
internal_value=0 0.041116 -0.171453 0.0163173 -0.0289594 0.0500918 -0.102596 0.0300243 0.144513 0.0058447 -0.0881867 0.126122 -0.0437349 -0.112635 0.169819 0.123125 0.228018 -0.076374 -0.11907 -0.247493 -0.0284709 0.15069 -0.0353958 -0.0195814 0.159556 0.206413 0.300766 0.10018 0.0665489 0.00687037
internal_count=7300 5888 1412 4749 2029 2720 741 2152 1139 1278 751 568 435 249 939 521 418 726 473 671 101 457 761 703 467 322 174 534 517 1618
shrinkage=0.1


Tree=15
num_leaves=31
num_cat=0
split_feature=65 65 1 1 78 78 78 1 3 33 7 112 100 91 140 20 77 136 140 96 111 10 86 63 64 1 0 3 128 79
split_gain=41.6834 13.0352 8.01878 6.3252 6.2323 3.97023 3.63582 3.30532 3.15236 3.00144 2.84172 2.71829 4.62744 2.81507 2.51316 2.77055 2.38757 2.32559 2.12788 2.08534 2.08134 1.99528 1.9272 1.78343 1.76047 1.74245 2.43524 1.69159 1.65338 1.59083
threshold=0.03500000000000001 0.22000000000000003 3.5000000000000004 412.00000000000006 3.5000000000000004 2.5000000000000004 1.5000000000000002 463.00000000000006 60.940000000000005 1.0000000180025095e-35 1.0000000180025095e-35 187.50000000000003 3.5000000000000004 1.5000000000000002 81.500000000000014 5.5000000000000009 1.5000000000000002 4.5000000000000009 315.50000000000006 2.5850000000000004 0.055000000000000007 1.0000000180025095e-35 1.0000000180025095e-35 7500.0000000000009 18.500000000000004 17.500000000000004 92.320000000000007 30.655000000000005 0.22500000000000003 1.0000000180025095e-35
decision_type=2 2 2 2 2 2 2 2 2 2 10 8 8 2 2 2 2 2 2 10 8 10 2 2 2 2 2 2 8 2
left_child=4 5 -3 6 17 7 9 10 -8 19 11 13 -13 -2 -6 -16 -7 20 27 -4 -1 -11 -22 25 -24 -21 -27 28 -14 -17
right_child=1 2 3 -5 14 16 8 -9 -10 21 -12 12 18 -15 15 29 -18 -19 -20 23 22 -23 24 -25 -26 26 -28 -29 -30 -31
leaf_value=0.0065047980181808622 -0.046077494815690449 -0.033877996687331928 0.016173357118863019 -0.0026557879992954742 -0.03145689729430954 -0.01896133612769332 0.0024190179307802188 -0.014660199336948799 0.011301853202673497 0.014382160434033724 0.013298147923297475 0.020510407444872276 0.0028948847690354225 -0.0067291918214177713 0.01734725424931163 -0.01166469356885827 -0.004772736744095266 0.0033605019042891615 0.0044241994834937843 0.019224460190162065 -0.0059899318200154657 0.027362235384834305 -0.011462514321503574 0.028806614604863251 -0.027216435692980323 -0.027870651619508864 0.0042773115712850824 -0.0011589367708121057 -0.019652464532352115 -0.023516006673228482
leaf_count=58 20 46 352 468 197 181 846 139 757 275 179 119 46 200 21 167 344 133 553 72 199 208 152 33 133 25 410 504 111 352
internal_value=0 0.0370044 0.075979 0.0815155 -0.154307 -0.0197982 0.0984995 0.00176467 0.0661384 0.136227 0.0136717 -8.00416e-05 0.0169164 -0.103063 -0.217888 -0.182618 -0.0966443 -0.0848868 -0.00153032 0.101847 -0.113963 0.199719 -0.135415 0.0628095 -0.188143 0.0481478 0.0242973 -0.0398239 -0.130462 -0.197026
internal_count=7300 5888 3492 3446 1412 2396 2978 1871 1603 1375 1732 1553 1333 220 737 540 525 675 1214 892 542 483 484 540 285 507 435 661 157 519
shrinkage=0.1


Tree=16
num_leaves=31
num_cat=0
split_feature=2 78 65 96 65 77 114 97 96 27 63 133 24 93 65 86 140 140 140 94 96 26 17 0 45 37 65 95 65 96
split_gain=33.9187 15.1943 7.23045 4.97727 4.39429 3.04825 2.93762 2.85376 3.02441 2.83644 2.61538 2.54739 2.38581 2.3329 2.29922 2.26861 2.242 3.02622 2.96565 2.0647 1.99133 1.95124 1.87382 1.84912 1.81282 1.7975 1.76912 1.75221 1.67062 1.47897
threshold=1.0000000180025095e-35 3.5000000000000004 0.87500000000000011 2.4900000000000007 0.015000000000000001 1.5000000000000002 1.0000000180025095e-35 24.500000000000004 2.9250000000000003 1.0000000180025095e-35 2160.0000000000005 1.0000000180025095e-35 1.5000000000000002 4.4050000000000011 0.46500000000000002 1.0000000180025095e-35 64.500000000000014 74.500000000000014 15.500000000000002 4.9850000000000012 4.1550000000000011 5.5000000000000009 5.5000000000000009 91.285000000000011 1.0000000180025095e-35 1.0000000180025095e-35 0.10500000000000002 4.9850000000000012 1.9100000000000004 1.9900000000000002
decision_type=2 2 2 8 2 2 10 10 10 2 2 2 2 10 2 2 2 2 2 10 10 2 2 2 2 2 2 10 2 10
left_child=2 4 3 6 -2 15 10 21 14 25 -1 27 16 20 -9 26 18 -18 -7 -11 28 -6 -10 -19 29 -3 -5 -12 -4 -13
right_child=1 9 13 5 7 12 -8 8 22 19 11 24 -14 -15 -16 -17 17 23 -20 -21 -22 -23 -24 -25 -26 -27 -28 -29 -30 -31
leaf_value=0.0039769007190192723 -0.012941423517230547 -0.019032395612975619 0.01162731775794257 -0.031787185012944974 -0.01059764215891963 0.024321743115782737 -0.017260690559507224 0.0042795840048740069 -0.0020670759023887339 0.020780905683835348 0.0076100174695826507 0.021864857309341991 -0.016731701402700153 0.025294748500909476 0.026052979550781258 0.003069721196549914 0.022400740535057924 0.013191416301941945 -0.01313131791386536 -0.014521476727079702 -0.00011807505702764718 0.0046461399470549974 -0.026020253526375575 0.002636152344265038 0.037441273217502222 -0.040259422716640292 -0.0087202872929097088 -0.027219072114676238 0.025352427652770921 0.010411531618033874
leaf_count=301 397 795 426 40 436 25 37 571 828 30 52 227 58 164 53 151 94 189 137 37 113 104 34 1362 44 42 197 20 112 224
internal_value=0 -0.0744888 0.0623771 0.0407052 -0.0332105 0.0155439 0.103344 -0.0143591 0.0082653 -0.185127 0.115107 0.155102 0.0323212 0.146352 0.0612893 -0.0650994 0.0387291 0.0497829 -0.0735152 0.0128556 0.119499 -0.076618 -0.0301186 0.0392238 0.180665 -0.200976 -0.126134 -0.0206473 0.144846 0.161763
internal_count=7300 3327 3973 3158 2423 2253 905 2026 1486 904 868 567 1865 815 624 388 1807 1645 162 67 651 540 862 1551 495 837 237 72 538 451
shrinkage=0.1


Tree=17
num_leaves=31
num_cat=0
split_feature=2 78 65 96 1 3 1 102 65 65 140 140 1 63 96 64 97 140 93 82 64 34 53 128 96 61 133 90 96 97
split_gain=27.4741 12.3074 5.85667 4.20439 3.9098 2.48129 4.04709 3.02748 2.43712 2.41534 2.40698 2.31745 2.25608 2.21531 2.18732 2.13271 2.0791 2.82558 1.88965 1.83261 1.74764 1.66983 1.66077 1.70222 1.6305 1.59292 1.56218 1.55035 1.50702 2.68939
threshold=1.0000000180025095e-35 3.5000000000000004 0.87500000000000011 3.6100000000000008 7.0000000000000009 4.3900000000000015 64.000000000000014 1.0000000180025095e-35 0.015000000000000001 0.45500000000000007 42.500000000000007 263.50000000000006 463.00000000000006 1455.0000000000002 1.0900000000000001 3528.5000000000005 80.000000000000014 296.50000000000006 4.4050000000000011 1.0000000180025095e-35 16759.000000000004 1.0000000180025095e-35 1.0000000180025095e-35 0.17500000000000002 4.9400000000000004 1.0000000180025095e-35 1.0000000180025095e-35 1.5000000000000002 1.4750000000000003 14.500000000000002
decision_type=2 2 2 8 2 2 2 8 2 2 2 2 2 2 10 2 8 2 10 2 2 2 2 10 10 2 2 2 10 10
left_child=2 4 3 5 -2 7 14 -1 -6 22 -5 15 13 -10 -7 -3 26 -18 24 25 -17 -14 23 -8 -4 -12 -15 -19 -11 -30
right_child=1 11 18 10 8 6 9 -9 12 28 19 -13 21 16 -16 20 17 27 -20 -21 -22 -23 -24 -25 -26 -27 -28 -29 29 -31
leaf_value=-0.034949033656448594 -0.024728050134217486 -0.024570913588334072 0.012102300130013803 -0.033574597829062011 -0.010008084835059456 0.043140000638862454 0.0052931222454206169 0.0054755777861414988 -0.0041512285936339197 0.025362721114005483 -0.0028313370423404399 -0.0080192964550236737 -0.01050164075249857 0.0048755358586398262 0.014698183791793502 -0.00082821721585876339 -0.016209836458833313 0.010903030916176481 0.022765273796451255 0.014401361130637259 -0.018031504946006065 0.0081782540489387292 0.029292166621788691 -0.0022579692113387064 -0.0078333191409580075 0.019872991915326568 0.024346711765974763 0.00075146339470706777 -0.0028997335408779759 0.014113849240816947
leaf_count=32 80 380 607 23 345 30 722 44 589 63 900 231 329 90 274 82 81 204 164 73 211 56 23 509 44 32 76 573 135 298
internal_value=0 -0.0670399 0.0561394 0.0366347 -0.0298894 0.0619832 0.0685485 -0.115453 -0.0224668 0.0500478 -0.015887 -0.166615 -0.00906493 0.00735204 0.175049 -0.196278 0.0354586 0.0156388 0.131717 -0.00856685 -0.132169 -0.0778457 0.026683 0.0217086 0.107549 -0.0205179 0.137901 0.0341674 0.109119 0.0880938
internal_count=7300 3327 3973 3158 2423 2130 2054 76 2343 1750 1028 904 1998 1613 304 673 1024 858 815 1005 293 385 1254 1231 651 932 166 777 496 433
shrinkage=0.1


Tree=18
num_leaves=31
num_cat=0
split_feature=65 121 2 63 1 24 65 140 0 3 136 64 111 93 79 1 114 121 65 72 1 96 112 77 140 1 64 1 13 131
split_gain=22.3797 7.83626 6.4707 4.97279 4.11013 3.13961 3.28855 2.73531 2.68965 2.45512 2.28533 2.23168 2.50465 2.17676 1.9746 2.47963 1.8435 1.83674 1.83302 1.80313 4.08278 1.91703 1.78215 1.64847 1.57506 1.51673 1.51443 1.49309 1.49287 1.49045
threshold=0.075000000000000025 45900.000000000007 13.500000000000002 1010.0000000000001 3.5000000000000004 1.5000000000000002 0.41000000000000009 322.50000000000006 99.140000000000015 62.720000000000006 17.500000000000004 312.50000000000006 0.015000000000000001 2.52 1.0000000180025095e-35 47.500000000000007 1.0000000180025095e-35 9900.0000000000018 0.77500000000000013 1.0000000180025095e-35 412.00000000000006 2.6650000000000005 405.00000000000006 2.5000000000000004 46.500000000000007 92.000000000000014 19453.000000000004 58.500000000000007 18.000000000000004 1.0000000180025095e-35
decision_type=2 8 2 2 2 2 2 2 2 2 2 2 10 8 2 2 10 10 2 2 2 10 8 2 2 2 2 2 2 8
left_child=1 10 3 23 -5 6 13 9 -4 24 11 12 -1 16 27 17 -6 -16 -7 20 21 29 -23 -2 -3 -15 -11 -8 -27 -17
right_child=2 7 8 4 5 18 14 -9 -10 26 -12 -13 -14 25 15 19 -18 -19 -20 -21 -22 22 -24 -25 -26 28 -28 -29 -30 -31
leaf_value=0.016728298444496959 -0.0074410273600461364 -0.035456168560054284 0.0012104932034805232 -0.023703066551436981 0.0095640841252387435 -0.033196703881884997 0.02152240224146466 0.0022327044321058167 -0.0098531249578035045 -0.0059535049532599242 0.0068368670494624098 0.0031421710502225046 -0.0097869829111681492 0.0084905573502662614 -0.00033956805862927521 0.029664397977397866 -0.0082423253376628213 -0.037779191113077107 -0.0027688767646680619 0.011310309183275052 -0.042508960347622637 -0.022753370668300812 0.0045262627999217795 0.0071607456455240028 -0.018202681565204725 -0.0015344312436490054 -0.025447643778108538 0.011457428177217803 0.018747579536743855 0.0031788375033715436
leaf_count=38 381 58 443 45 754 26 182 87 436 262 207 247 570 233 38 42 63 20 83 540 20 34 81 97 603 807 47 775 38 43
internal_value=0 -0.0865778 0.0354099 0.0513844 0.0634048 0.0669824 0.0719498 -0.147533 -0.0427726 -0.162768 -0.0259092 -0.0487344 -0.0812978 0.0429788 0.102879 0.0668033 0.0819101 -0.132498 -0.100269 0.0820131 0.00570128 0.0487804 -0.0353902 -0.0447791 -0.197166 0.0134733 -0.0891863 0.133716 -0.00622341 0.162658
internal_count=7300 2119 5181 4302 3824 3779 3670 1057 879 970 1062 855 608 1895 1775 818 817 58 109 760 220 200 115 478 661 1078 309 957 845 85
shrinkage=0.1


Tree=19
num_leaves=31
num_cat=0
split_feature=2 78 65 77 1 96 53 26 27 1 94 86 114 63 140 65 93 96 114 123 34 83 1 96 24 1 64 27 117 95
split_gain=18.5104 8.22681 4.1443 3.23917 2.79684 2.64057 2.28257 1.92896 1.89837 1.71007 1.65895 1.59951 1.4923 1.5496 2.10104 1.47915 1.4699 1.48126 1.71769 1.57335 1.43786 2.22133 1.43379 1.6627 1.40364 1.36339 1.27571 1.50854 1.32803 1.94703
threshold=1.0000000180025095e-35 3.5000000000000004 0.87500000000000011 1.5000000000000002 7.0000000000000009 2.7750000000000004 1.0000000180025095e-35 6.5000000000000009 1.0000000180025095e-35 67.500000000000014 4.9850000000000012 1.0000000180025095e-35 1.0000000180025095e-35 7500.0000000000009 112.50000000000001 0.68000000000000005 4.4050000000000011 3.3150000000000004 1.0000000180025095e-35 1.0000000180025095e-35 1.0000000180025095e-35 1.0000000180025095e-35 20.500000000000004 1.8050000000000004 1.5000000000000002 17.500000000000004 2901.0000000000005 5.5000000000000009 1.0000000180025095e-35 4.6350000000000007
decision_type=2 2 2 2 2 8 2 2 2 2 10 2 10 2 2 2 10 10 10 8 2 2 2 10 2 2 2 2 8 10
left_child=2 4 3 11 -2 6 9 20 -3 22 -10 -1 13 15 -15 -11 17 18 19 -4 26 -22 25 -24 -7 -5 27 28 29 -6
right_child=1 8 16 5 7 24 -8 -9 10 12 -12 -13 -14 14 -16 -17 -18 -19 -20 -21 21 -23 23 -25 -26 -27 -28 -29 -30 -31
leaf_value=-0.0092362859361034277 -0.020851853118342662 -0.01494034050523854 0.024830445847398908 0.013633226109739167 0.014731023346683112 0.0021490539469924976 0.032657227541009588 0.0085197257653888171 0.020028135733058058 0.0037781886484333583 -0.011615918022958008 0.0022713771846892251 -0.018759990349411965 0.0042035529183016883 0.045333347161826881 0.018459751665592196 0.019426848788081284 0.00412948538944351 -0.013297185217115013 0.0099199892208992474 0.011896119131913446 -0.0087756141136058532 0.05035219117999077 0.017190939708854314 -0.013722897081932953 -0.014992178056854755 0.0019969227675186553 0.0032800192234345976 -0.0070305244298212652 -0.0069868573009673699
leaf_count=290 80 837 115 99 73 1416 36 167 30 807 37 207 25 27 23 75 164 330 22 184 152 79 21 54 58 20 345 206 1226 95
internal_value=0 -0.0550274 0.0460801 0.0296727 -0.0246538 0.0435137 0.0786171 -0.0183758 -0.136438 0.0708618 0.0255306 -0.0444336 0.0535072 0.0599747 0.231233 0.0502662 0.109656 0.0883406 0.136705 0.156548 -0.0263247 0.0482657 0.156472 0.264761 0.0152451 0.0882223 -0.0351835 -0.0470758 -0.0588796 0.0245008
internal_count=7300 3327 3973 3158 2423 2661 1187 2343 904 1151 67 497 957 932 50 882 815 651 321 299 2176 231 194 75 1474 119 1945 1600 1394 168
shrinkage=0.1


Tree=20
num_leaves=31
num_cat=0
split_feature=65 78 1 94 1 6 96 26 105 91 0 140 65 129 97 24 65 111 96 49 3 92 17 55 121 104 64 96 53 72
split_gain=15.5098 7.15625 4.3163 3.34465 3.22317 2.70668 2.04238 1.92912 2.17533 1.94974 1.86274 1.84815 2.13867 1.72547 1.51815 1.48878 1.3902 1.83439 1.45321 1.53725 1.42667 1.3048 1.32074 2.59864 1.29097 1.23509 1.18435 1.16532 1.14328 1.13266
threshold=0.22000000000000003 3.5000000000000004 3.5000000000000004 3.3000000000000003 412.00000000000006 1.0000000180025095e-35 3.6250000000000004 7.5000000000000009 8.5000000000000018 6.5000000000000009 99.16500000000002 41.000000000000007 0.74500000000000011 346.00000000000006 12.500000000000002 1.0000000180025095e-35 0.015000000000000001 0.025000000000000005 4.0100000000000007 1.0000000180025095e-35 41.740000000000009 3.5000000000000004 5.5000000000000009 1.0000000180025095e-35 52200.000000000007 44920.000000000007 19453.000000000004 1.405 1.0000000180025095e-35 1.0000000180025095e-35
decision_type=2 2 2 8 2 8 10 2 10 2 2 2 2 10 10 2 2 8 10 2 2 2 2 2 10 10 2 10 2 2
left_child=1 7 -2 -3 5 6 11 9 -9 16 26 15 28 -8 -15 -4 17 -1 19 21 -20 22 -18 -24 -16 -11 -5 -19 -13 -6
right_child=2 3 4 10 29 -7 13 8 -10 25 -12 12 -14 14 24 -17 18 27 20 -21 -22 -23 23 -25 -26 -27 -28 -29 -30 -31
leaf_value=0.018589561723172665 -0.02561628130750488 0.018694036055563225 0.0071951291663572203 -0.0030459623665585384 -0.013329377485788427 -0.0033568107921002049 -0.0015579768907410831 0.038118412536145618 0.004309168614030994 0.018984549794250224 -0.014943732397446655 0.007149363547886145 0.01526091483647909 0.020010702628869476 0.0094659539335407317 -0.020635915444408723 -0.00034163126321106509 -0.021304897983174989 -0.035200816401365125 0.01859262656324949 -0.0072618812555447221 -0.02416143087670207 -0.018809412908005682 0.010958199700476921 -0.0060280863858219007 -0.0018406893962956206 -0.021357493229755543 -0.0071077136617061004 0.023897657272893759 -0.00026130258290519578
leaf_count=25 46 36 40 255 80 258 402 22 141 68 754 1378 498 82 160 37 1625 68 22 39 108 25 103 41 81 49 41 386 42 388
internal_value=0 -0.0441398 0.0481341 -0.112771 0.0521961 0.0643201 0.0736051 -0.0167578 0.0887238 -0.0234766 -0.123047 0.090124 0.0962224 0.0281496 0.0825745 -0.0617823 -0.0295186 -0.0778199 -0.0177323 -0.0104864 -0.1199 -0.0147562 -0.0115502 -0.103339 0.0425841 0.102629 -0.0558236 -0.0923416 0.0764474 -0.0249516
internal_count=7300 3808 3492 1086 3446 2978 2720 2722 163 2559 1050 1995 1918 725 323 77 2442 479 1963 1833 130 1794 1769 144 241 117 296 454 1420 468
shrinkage=0.1


Tree=21
num_leaves=31
num_cat=0
split_feature=2 78 65 77 79 104 129 1 140 112 31 89 96 26 96 26 93 112 128 97 140 140 140 95 95 96 140 140 1 33
split_gain=12.6984 5.35247 3.04675 2.29077 2.17783 2.01252 2.54241 1.81352 1.72305 1.59567 2.50868 1.80753 2.83666 1.82072 1.50608 1.47474 1.45897 1.43632 1.36312 2.41922 1.32198 1.21964 2.05343 1.57553 1.52936 1.43821 1.43329 1.90101 1.18242 1.17594
threshold=1.0000000180025095e-35 3.5000000000000004 0.33500000000000008 1.5000000000000002 1.0000000180025095e-35 5120.0000000000009 377.50000000000006 7.0000000000000009 136.50000000000003 875.00000000000011 1.0000000180025095e-35 7.5000000000000009 2.6950000000000007 1.0000000180025095e-35 2.3350000000000004 5.5000000000000009 4.955000000000001 2839.0000000000005 0.03500000000000001 1.5000000000000002 131.50000000000003 64.500000000000014 74.500000000000014 4.5550000000000006 3.4850000000000008 3.9850000000000008 293.50000000000006 129.50000000000003 36.000000000000007 1.0000000180025095e-35
decision_type=2 2 2 2 2 8 10 2 2 8 2 2 8 2 8 2 10 10 10 10 2 2 2 10 10 10 2 2 2 2
left_child=2 7 3 -1 8 6 18 -2 14 10 -6 12 -11 -13 -4 28 -3 20 19 -5 -16 23 -23 -7 26 -25 27 -24 -9 -30
right_child=1 16 4 5 9 21 -8 15 -10 11 -12 13 -14 -15 17 -17 -18 -19 -20 -21 -22 22 24 25 -26 -27 -28 -29 29 -31
leaf_value=-0.0075388991363521621 -0.016913343576015906 -0.012065136657334712 0.015924804015047207 0.041388303999389919 -0.00025052102366462351 -0.0233933054531614 0.024477189074386844 0.0057434003629507676 0.013312822243783618 0.022502784665376575 -0.030410099306496824 -0.027970364754614625 0.004348291608001857 0.0014410623974218917 0.0017528394037790733 0.0054989516925818931 0.0060302668850512262 0.010535930912040376 -0.0049644470087015164 0.0053517942737336417 -0.01952389970829245 0.020277058190010765 0.011440006685795404 0.015722793317399921 -0.0027379608337779198 -0.013227945274195156 0.017846063685603441 -0.0057511248523951508 -0.0037576371392053346 0.0073800365880597385
leaf_count=282 80 857 120 21 250 48 80 161 543 119 31 23 311 248 334 260 47 194 102 165 32 54 119 32 613 37 75 140 1822 100
internal_value=0 -0.045577 0.0381663 0.00724038 0.0629631 0.022921 0.0870653 -0.0210774 0.0911242 0.0278908 -0.0357773 0.0534125 0.0937244 -0.0105511 0.0575828 -0.0160222 -0.111243 0.0357974 0.0432579 0.0942043 -0.00107422 0.00180739 0.0130994 -0.094802 0.00228393 0.00198484 0.0567263 0.021475 -0.0248859 -0.0317815
internal_count=7300 3327 3973 1768 2205 1486 368 2423 1223 982 281 701 430 271 680 2343 904 560 288 186 366 1118 1001 117 947 69 334 259 2083 1922
shrinkage=0.1


Tree=22
num_leaves=31
num_cat=0
split_feature=65 78 1 77 96 133 61 65 26 18 140 36 20 83 17 78 80 90 97 1 63 137 140 64 140 89 112 97 136 77
split_gain=10.4586 4.79266 3.21582 2.76984 2.49714 1.88511 1.85139 1.91337 1.6713 1.65525 1.53458 1.59235 2.28709 1.58714 1.49372 2.77149 1.71441 1.52162 2.2669 2.71527 2.0086 1.78234 2.00921 1.72252 1.46413 1.42229 1.40071 2.1439 1.68226 1.50995
threshold=0.22000000000000003 3.5000000000000004 3.5000000000000004 3.5000000000000004 2.3450000000000002 2.5000000000000004 1.0000000180025095e-35 1.0050000000000001 1.0000000180025095e-35 1.0000000180025095e-35 413.00000000000006 1.0000000180025095e-35 2.5000000000000004 1.0000000180025095e-35 1.5000000000000002 3.5000000000000004 1.0000000180025095e-35 1.5000000000000002 9.5000000000000018 290.50000000000006 3330.0000000000005 1.0000000180025095e-35 134.50000000000003 12.500000000000002 87.500000000000014 4.5000000000000009 236.50000000000003 10.500000000000002 4.5000000000000009 1.5000000000000002
decision_type=2 2 2 2 8 2 2 2 2 2 2 2 2 2 2 2 2 2 10 2 2 2 2 2 2 2 10 8 2 2
left_child=1 9 -2 5 25 6 7 14 -5 10 11 26 -13 -12 16 -16 17 18 19 20 -4 -22 -23 -19 -6 -3 29 -28 -29 -1
right_child=2 4 3 8 24 -7 -8 -9 -10 -11 13 12 -14 -15 15 -17 -18 23 -20 -21 21 22 -24 -25 -26 -27 27 28 -30 -31
leaf_value=-0.019156136747230504 -0.022312982254864083 0.032971278168261058 0.0090560947223018631 -0.0091898425604755949 -0.016608872051259518 0.020355116782499658 0.016237427200171718 0.0096134864663245528 0.012588037962367585 0.022379485607661051 0.0045012840343459752 -0.0073226224550599671 -0.039263688117265702 -0.0094545938586816196 0.008520336011579796 -0.0033107310215831245 0.0065779148862824951 0.003002716769755547 -0.0025863901619522338 -0.049567591585218909 -0.044949684753304436 0.0061338428625216093 -0.034784899489022796 -0.012536334215927822 -0.0080709506337409125 -0.00082436927292622972 0.015234259733551881 -0.0018609629884198079 0.019684008155998432 -0.0036358419405914085
leaf_count=68 46 20 34 38 273 62 98 313 485 29 573 217 25 95 594 297 277 598 476 22 21 30 20 81 760 33 92 783 38 802
internal_value=0 -0.0362464 0.0395264 0.0430326 -0.0924118 0.0310401 0.0273017 0.0225109 0.110057 -0.013838 -0.016397 -0.0301074 -0.106223 0.0251654 0.013105 0.0457665 -0.00556167 -0.0209762 -0.0575345 -0.176237 -0.109307 -0.205018 -0.102337 0.0114902 -0.103273 0.119287 -0.0197765 0.0075839 -0.00863754 -0.0484892
internal_count=7300 3808 3492 3446 1086 2923 2861 2763 523 2722 2693 2025 242 668 2450 891 1559 1282 603 127 105 71 50 679 1033 53 1783 913 821 870
shrinkage=0.1


Tree=23
num_leaves=31
num_cat=0
split_feature=2 63 3 3 1 46 102 77 1 1 75 44 140 64 93 27 63 3 138 79 140 97 91 104 96 94 49 112 105 90
split_gain=8.83249 4.23938 3.85137 2.59471 2.574 2.29531 2.6856 2.26357 2.10875 2.87735 1.80697 1.75163 1.72404 1.7498 1.64398 1.59949 1.48028 1.46948 1.41342 1.60602 1.36801 1.31566 1.29334 1.35428 1.20995 1.19759 1.16825 1.30294 1.10528 1.11329
threshold=7.5000000000000009 1010.0000000000001 46.550000000000004 4.3900000000000015 92.000000000000014 1.0000000180025095e-35 1.0000000180025095e-35 2.5000000000000004 238.00000000000003 290.50000000000006 1.0000000180025095e-35 1.0000000180025095e-35 274.50000000000006 3.5000000000000004 1.0000000180025095e-35 1.0000000180025095e-35 41400.000000000007 30.655000000000005 1.0000000180025095e-35 1.0000000180025095e-35 251.50000000000003 55.500000000000007 3.5000000000000004 170400.00000000003 3.5600000000000001 4.3000000000000007 1.0000000180025095e-35 4018.5000000000005 3.5000000000000004 1.5000000000000002
decision_type=2 2 2 2 2 2 8 2 2 2 2 2 2 2 8 2 2 2 2 2 2 10 2 10 10 8 2 8 8 2
left_child=1 7 15 5 18 6 -3 11 16 10 20 14 13 26 17 -2 22 -1 19 -5 -10 -9 -6 -24 -12 -20 -11 -28 29 -15
right_child=2 3 -4 4 8 -7 -8 21 9 12 24 -13 -14 28 -16 -17 -18 -19 25 -21 -22 -23 23 -25 -26 -27 27 -29 -30 -31
leaf_value=-0.045749898751576742 -0.011784060619974092 -0.040006991221823475 -0.0013432339882702062 0.0084759349070960815 -0.00074347029709769408 0.014727818662480963 -0.0061635957619773207 0.0090269188530903103 0.0060111484772182614 0.0028547125894708516 0.034649323525601565 0.0025110653160212884 0.010509400946860009 -0.013390525345775214 -0.0073968921113191756 -0.0031638155297591015 -0.025970736899901006 -0.015204845629041159 0.018843378485858528 -0.008566150536429824 0.022981762536607372 -0.010459730884229596 0.009226687022052921 -0.0072378817701437437 0.0085451194801582746 0.0086207196728459428 0.0015249146593679839 0.027858159841880916 -0.010747414113190162 0.0046856611777430042
leaf_count=21 782 33 1310 203 1234 31 81 163 228 553 56 142 257 44 384 297 21 63 194 76 60 44 276 61 26 280 34 42 153 151
internal_value=0 0.0242607 -0.049872 0.0373858 0.0422099 -0.0939945 -0.159604 -0.0415095 0.0298175 0.055408 0.132756 -0.0721719 0.032216 0.0130455 -0.101689 -0.094113 0.00403409 -0.228411 0.0948075 0.0383365 0.0954669 0.0488483 0.0075596 0.0624645 0.263724 0.128047 0.0445238 0.160775 -0.0438507 0.00606932
internal_count=7300 4911 2389 4094 3949 145 114 817 3196 1604 370 610 1234 977 468 1079 1592 84 753 279 288 207 1571 337 82 474 629 76 348 195
shrinkage=0.1


Tree=24
num_leaves=31
num_cat=0
split_feature=65 121 1 65 27 111 140 111 96 77 96 93 104 133 106 119 2 7 140 65 129 91 93 114 1 53 96 3 1 117
split_gain=7.35556 2.90983 2.61455 2.23828 2.135 1.92705 1.91856 1.82972 1.68398 1.56652 1.55927 1.62218 1.61617 1.78272 1.65637 1.33265 1.32263 1.24925 1.24533 2.80414 1.84716 1.63916 1.22698 1.21055 1.13609 1.13399 1.09971 1.67645 1.4575 1.09721
threshold=0.075000000000000025 45900.000000000007 463.00000000000006 0.35500000000000004 1.5000000000000002 3.2750000000000004 45.500000000000007 0.29000000000000009 2.8150000000000004 1.5000000000000002 2.9950000000000006 4.955000000000001 7260.0000000000009 1.0000000180025095e-35 3.5000000000000004 1.0000000180025095e-35 1.0000000180025095e-35 1.0000000180025095e-35 74.500000000000014 0.13500000000000004 156.50000000000003 2.5000000000000004 4.9000000000000012 1.0000000180025095e-35 92.000000000000014 1.0000000180025095e-35 2.4900000000000007 43.310000000000009 271.00000000000006 1.5000000000000002
decision_type=2 8 2 2 2 8 2 10 10 2 8 10 8 2 8 8 2 10 2 2 10 2 10 10 2 2 10 2 2 10
left_child=1 17 3 4 8 7 -3 -4 23 -8 12 16 13 -5 -14 -11 -12 -1 19 -10 -21 -20 -16 25 -19 -2 29 -28 -29 -15
right_child=2 6 5 10 -6 -7 9 -9 18 15 11 -13 14 26 22 -17 -18 24 21 20 -22 -23 -24 -25 -26 -27 27 28 -30 -31
leaf_value=-0.0021845676082917786 0.0027030922312467603 -0.025186717078428379 -0.0093115922037354647 0.019475108569625907 0.023280426700849358 -0.0018007126407762069 -0.014497434421940764 -0.039895572616822195 0.041123111066408459 -0.0085196606664337034 0.0017250391165754991 0.01063780056703582 0.02255285224214626 0.0066825218313189359 0.0098648626519631712 0.00025136157340050613 -0.01704626538990758 0.028188654952324355 -0.0089021152321267401 -0.013853600823643562 0.012961312423080761 -0.0005308455705463781 -0.012021794653049221 -0.016582378356542905 0.0019318303465843201 0.02464024498112849 -0.028325205871595011 0.017014818349187926 -0.014004551774511735 -0.012381972677798735
leaf_count=991 1297 66 71 54 41 336 246 27 20 471 1000 211 104 187 499 274 39 26 385 49 54 596 27 32 45 24 31 28 33 36
internal_value=0 -0.049635 0.0203004 0.0270929 0.00648914 -0.0539941 -0.0867794 -0.177378 0.00271261 -0.0757846 0.0499778 0.0264385 0.0794314 0.0268759 0.110214 -0.0529381 0.0102044 -0.0126654 -0.0262695 0.068581 0.00204703 -0.0381621 0.087414 0.026361 0.11547 0.0310165 -0.00190273 -0.0938931 0.00233848 0.0360485
internal_count=7300 2119 5181 4747 2498 434 1057 98 2457 991 2249 1250 999 369 630 745 1039 1062 1104 123 103 981 526 1353 71 1321 315 92 61 223
shrinkage=0.1


Tree=25
num_leaves=31
num_cat=0
split_feature=2 63 3 3 1 77 26 63 3 46 3 17 89 99 44 93 47 94 121 24 27 91 1 96 97 3 112 96 65 72
split_gain=6.23272 3.03423 2.69875 2.01742 2.15037 1.78711 1.77731 1.76698 1.58867 1.47195 1.443 2.27899 1.40217 1.23483 1.22798 1.51986 1.34545 1.15013 1.13127 1.12556 1.0988 1.21406 1.08811 1.01162 1.00496 0.98216 1.8808 1.6308 1.67519 1.32214
threshold=9.5000000000000018 1010.0000000000001 46.550000000000004 4.3900000000000015 67.500000000000014 2.5000000000000004 29.000000000000004 5550.0000000000009 60.940000000000005 1.0000000180025095e-35 67.520000000000024 1.5000000000000002 9.5000000000000018 1.0000000180025095e-35 1.0000000180025095e-35 1.0000000180025095e-35 1.0000000180025095e-35 1.0000000180025095e-35 3150.0000000000005 1.5000000000000002 2.5000000000000004 8.5000000000000018 153.50000000000003 4.4150000000000009 55.500000000000007 17.345000000000002 1586.0000000000002 1.5650000000000002 0.025000000000000005 1.0000000180025095e-35
decision_type=2 2 2 2 2 2 2 2 2 2 2 2 2 8 2 8 2 8 10 2 2 2 2 8 10 2 10 8 2 2
left_child=1 5 20 7 12 14 8 9 19 18 11 -10 17 -13 15 16 -1 -5 -3 25 21 -2 -12 -19 -7 26 -6 -27 -29 -30
right_child=2 3 -4 4 6 24 -8 -9 10 -11 22 13 -14 -15 -16 -17 -18 23 -20 -21 -22 -23 -24 -25 -26 27 -28 28 29 -31
leaf_value=-0.031097737658768894 -0.010081872403862628 -0.0037634159306253428 -0.0012614023295241918 0.028307255345529744 -0.036658332124352454 0.0080251375851999786 0.027143670554304944 -0.035197142782133255 0.026088125632422701 0.01684843202000829 0.026736915241926909 0.017661636029370129 -0.0025774116015426169 -0.006123038488921935 0.0021212229418887439 -0.0058589356571499152 -0.006134687001375776 0.010992217902271281 -0.028928198867841912 -0.01548521958757192 0.00067295253794014338 0.012273001417517663 0.0032367134636172019 -0.0044100636061518749 -0.008646262384465208 0.010967993085719892 0.0052718723597733877 -0.014563638724487377 -0.0038766436242728577 0.0026585566048609724
leaf_count=50 860 80 1245 35 20 169 29 21 77 27 20 35 92 58 143 418 38 460 23 44 122 25 1326 47 46 152 23 74 429 1112
internal_value=0 0.0195165 -0.0437475 0.0306575 0.0349064 -0.034435 0.0249338 -0.0828248 0.0228125 -0.0393472 0.0468234 0.133636 0.0883719 0.0282818 -0.0606118 -0.083736 -0.203182 0.107747 -0.0938274 0.00317906 -0.0822392 -0.0945038 0.035859 0.0956439 0.0445823 0.0070207 -0.142305 0.0106546 0.00133452 0.00839218
internal_count=7300 5048 2252 4184 4033 864 3399 151 3370 130 1516 170 634 93 649 506 88 542 103 1854 1007 885 1346 507 215 1810 43 1767 1615 1541
shrinkage=0.1


Tree=26
num_leaves=31
num_cat=0
split_feature=2 140 65 112 91 96 89 64 136 100 38 26 129 112 1 104 65 0 2 10 96 104 95 89 65 99 32 3 3 10
split_gain=5.12529 2.34075 2.00109 2.45563 1.74243 1.78088 1.65746 1.52893 1.64356 1.51591 1.54918 1.2435 1.21152 1.31521 1.18186 1.14911 1.14778 1.08155 1.38453 1.08253 1.03702 1.8336 0.955904 0.951343 0.92382 1.01502 1.35792 1.21386 1.65988 1.25826
threshold=1.0000000180025095e-35 263.50000000000006 1.8100000000000003 882.50000000000011 3.5000000000000004 3.6250000000000004 2.5000000000000004 22.500000000000004 1.0000000180025095e-35 2.5000000000000004 1.0000000180025095e-35 1.0000000180025095e-35 562.50000000000011 742.50000000000011 319.50000000000006 8796.8571428550022 0.19000000000000003 99.140000000000015 15.500000000000002 1.0000000180025095e-35 1.6150000000000002 21825.000000000004 4.9450000000000012 4.5000000000000009 1.0000000180025095e-35 1.0000000180025095e-35 1.0000000180025095e-35 34.415000000000006 4.3900000000000015 1.0000000180025095e-35
decision_type=2 2 2 10 2 10 2 2 2 8 2 2 10 10 2 10 2 2 2 10 8 8 8 2 2 8 2 2 2 8
left_child=2 6 4 -4 5 24 7 8 14 10 -7 22 15 -14 -2 -13 -11 19 -19 -3 -8 -22 -6 -18 -1 27 -27 28 -26 -29
right_child=1 17 3 -5 11 9 20 -9 -10 16 -12 12 13 -15 -16 -17 23 18 -20 -21 21 -23 -24 -25 25 26 -28 29 -30 -31
leaf_value=-0.01638667288676111 -0.012875195287511146 -0.0033836320193896437 -0.0012362838985446173 0.021831827855924458 0.00037450857648472173 -0.0063329725099868298 -0.030661357785575095 0.000376026984293814 0.0022383547296547994 -0.019035958796503376 0.011929579581350715 0.0069337414062774667 0.033189755398780107 0.00963290456487839 -0.041999523002992978 -0.0013287683464880066 -0.010009793993921426 0.001733392596061733 -0.0060870394386149419 0.0049946828666020812 0.013587842236917752 -0.0085399622708637237 -0.020340023209740009 -0.00016934684497736999 -0.014098867988213899 0.0089615266366570578 0.0013437411166057006 0.0014232430045244618 0.0076736076814659009 -0.0074922894608742121
leaf_count=27 38 217 78 113 109 86 20 561 42 69 101 499 26 268 22 254 195 413 501 533 39 941 28 198 40 403 558 353 281 287
internal_value=0 -0.0289555 0.0242474 0.124113 0.0192039 0.00471378 -0.0554882 -0.0167162 -0.129337 -0.0406575 0.0353076 0.050999 0.0627219 0.117162 -0.235541 0.0414665 -0.0714052 -0.00243869 -0.025533 0.0257056 -0.0811941 -0.0765937 -0.0385912 -0.0505201 0.019822 0.0224024 0.045383 -0.000578078 0.0496053 -0.0257482
internal_count=7300 3327 3973 191 3782 2598 1663 663 102 649 187 1184 1047 294 60 753 462 1664 914 750 1000 980 137 393 1949 1922 961 961 321 640
shrinkage=0.1


Tree=27
num_leaves=31
num_cat=0
split_feature=2 63 3 24 65 3 1 104 46 65 93 5 77 63 112 97 121 61 138 55 104 1 95 133 111 95 89 26 64 140
split_gain=4.18779 2.25554 1.89661 1.56297 1.50771 1.40969 1.82009 1.6602 1.82157 1.4343 1.62618 1.42869 1.39064 1.37152 1.17125 1.17663 1.19583 1.05004 1.11595 1.34068 1.4562 1.0121 1.08861 1.00716 1.37719 1.7667 0.991042 1.05334 0.967403 1.64867
threshold=9.5000000000000018 1010.0000000000001 46.550000000000004 1.5000000000000002 0.77500000000000013 4.3900000000000015 92.000000000000014 1.0000000180025095e-35 1.0000000180025095e-35 0.39500000000000007 2.52 1.0000000180025095e-35 2.5000000000000004 5370.0000000000009 1195.0000000000002 22.500000000000004 37296.000000000007 1.0000000180025095e-35 1.5000000000000002 1.0000000180025095e-35 141480.00000000003 166.00000000000003 4.8150000000000004 1.0000000180025095e-35 0.25500000000000006 2.4500000000000006 9.5000000000000018 1.0000000180025095e-35 3528.5000000000005 61.500000000000007
decision_type=2 2 2 2 2 2 2 8 2 2 8 10 2 2 10 10 10 2 2 2 10 2 10 2 8 10 2 2 2 2
left_child=1 12 -2 5 -5 7 26 -3 -9 10 17 13 28 -11 -15 -16 -17 18 19 20 23 22 -12 -8 -25 -26 -7 -28 29 -1
right_child=2 3 -4 4 -6 6 9 8 -10 11 21 -13 -14 14 15 16 -18 -19 -20 -21 -22 -23 -24 24 25 -27 27 -29 -30 -31
leaf_value=-0.026079921167707298 -0.0068127837062419974 -0.027737840767949818 -0.00097600465808474017 -0.029704269411525243 -0.0025399353310127655 0.0095020433806155703 -0.004032433178389863 -0.0074085008516471748 0.024556683863259175 0.0022874406631922767 -0.016072134934550172 0.019739697672876307 0.0039184676041436753 0.0018994896299982509 0.02526849329189966 0.015798102351254784 -0.0061232021852471938 0.019377888625533118 -0.017028342409024913 0.017432179701427231 -0.0079064144187884124 -0.001144324378764379 0.0018509341759935898 0.022447447267432627 -0.010787331422084365 0.0089188155456627078 -0.016091670738833566 0.0047573644411959895 0.0053198826300601167 -0.0052701630741209286
leaf_count=41 1007 30 1245 27 84 596 98 94 22 1234 101 58 215 113 68 76 37 41 27 64 114 786 51 52 58 211 31 111 75 533
internal_value=0 0.0159976 -0.0358597 0.0256033 -0.0914748 0.028794 0.0323811 -0.0676909 -0.0134614 0.0220245 0.000929652 0.0433455 -0.0305187 0.037498 0.0988775 0.148749 0.0862033 0.0387571 0.0285714 0.0375649 0.0211438 -0.0258883 -0.100585 0.048408 0.0754976 0.0466991 0.0771334 0.00205815 -0.0536099 -0.0675657
internal_count=7300 5048 2252 4184 111 4073 3927 146 116 3189 1603 1586 864 1528 294 181 113 665 624 597 533 938 152 419 321 269 738 142 649 574
shrinkage=0.1


Tree=28
num_leaves=31
num_cat=0
split_feature=2 140 140 95 140 104 96 129 111 65 63 32 65 140 64 96 96 91 63 97 0 30 93 121 128 129 130 112 113 65
split_gain=3.52855 1.7543 1.69254 1.61658 1.41419 1.27399 1.25678 2.24912 1.62196 1.35572 1.27753 2.01959 1.24501 1.1005 1.18169 2.46847 1.30653 1.60525 1.45148 1.2773 1.08334 1.17866 1.21475 1.0749 1.2006 1.81453 1.72918 1.23644 1.35198 1.06051
threshold=1.0000000180025095e-35 244.50000000000003 182.50000000000003 3.8250000000000006 2256.5000000000005 22747.500000000004 3.6250000000000004 346.00000000000006 1.2250000000000003 0.77500000000000013 3900.0000000000005 1.0000000180025095e-35 0.115 13.500000000000002 1.0000000180025095e-35 1.3200000000000003 1.5650000000000002 1.5000000000000002 2160.0000000000005 4.5000000000000009 99.140000000000015 1.0000000180025095e-35 2.1250000000000004 453600.00000000006 0.34500000000000003 544.00000000000011 1.5000000000000002 367.50000000000006 1.5000000000000002 1.7250000000000003
decision_type=2 2 2 10 2 8 10 10 10 2 2 2 2 2 2 10 8 2 2 10 2 2 8 10 10 10 10 8 8 2
left_child=4 2 5 -4 6 -2 9 10 -9 13 12 -12 -8 -1 15 -15 17 19 -19 -16 -3 -22 -23 24 27 26 -26 -18 -29 -10
right_child=1 20 3 -5 -6 -7 7 8 29 -11 11 -13 -14 14 16 -17 23 18 -20 -21 21 22 -24 -25 25 -27 -28 28 -30 -31
leaf_value=0.022368170779484969 0.0022641428233875849 0.002602496761500912 -0.044342330079525712 -0.0099295843154365241 0.028536129384301601 -0.0054277522528765419 -0.019796371627377258 0.020597860599783333 -0.00034459084188947044 0.0074474255735015099 0.026826612870659561 -0.0073687431369669348 -0.0048516668768841123 -0.03216183465274592 -0.017883247726907334 -4.6836133835659857e-05 -0.0024363909314893419 -0.0021665992161545617 0.016899588204699306 0.011539981428533793 0.0023709534243023297 -0.028074204312129453 -0.0041519968559393444 0.022337489994242787 -0.0080504258872645205 0.00018888491617082974 -0.039435555661718052 0.020767946011263271 0.0037183203490303396 0.014248101517247659
leaf_count=26 259 769 20 43 20 1277 63 55 293 542 31 39 484 31 36 105 339 52 172 25 333 22 604 24 107 484 21 49 915 60
internal_value=0 -0.0240254 -0.0478965 -0.208543 0.0201189 -0.0413075 0.0187769 -0.0113593 0.0462452 0.0293267 -0.0494511 0.0777491 -0.065729 0.019071 0.0168168 -0.0736717 0.0223503 0.0855708 0.124735 -0.0582455 -0.00193629 -0.0243578 -0.0499271 0.0130579 0.0104221 -0.0261131 -0.131995 0.0275822 0.0458495 0.0213575
internal_count=7300 3327 1599 63 3973 1536 3953 1025 408 2928 617 70 547 2386 2360 136 2224 285 224 61 1728 959 626 1939 1915 612 128 1303 964 353
shrinkage=0.1


Tree=29
num_leaves=31
num_cat=0
split_feature=65 78 77 1 26 18 133 61 113 112 109 111 65 45 95 53 23 0 3 93 1 137 7 96 49 93 90 72 89 97
split_gain=3.01636 1.62011 1.56061 1.30845 1.29835 1.17968 1.15405 1.18757 1.23685 1.06327 1.60468 1.262 1.14487 1.08907 0.943862 0.931968 0.85034 0.844924 1.07619 1.37058 1.28903 1.05336 1.01447 1.2395 1.35689 1.00962 1.0221 0.983967 1.87111 0.862402
threshold=0.22000000000000003 2.5000000000000004 3.5000000000000004 3.5000000000000004 1.0000000180025095e-35 1.0000000180025095e-35 2.5000000000000004 1.0000000180025095e-35 3.5000000000000004 474.00000000000006 2.5000000000000004 0.14500000000000005 0.015000000000000001 1.0000000180025095e-35 2.5650000000000004 1.0000000180025095e-35 7.5000000000000009 84.195000000000007 18.885000000000005 3.3200000000000003 58.500000000000007 1.0000000180025095e-35 1.0000000180025095e-35 4.9400000000000004 1.0000000180025095e-35 1.0450000000000002 1.5000000000000002 1.0000000180025095e-35 4.5000000000000009 11.500000000000002
decision_type=2 2 2 2 2 2 2 2 10 8 10 8 2 2 8 2 2 2 2 8 2 2 8 8 2 8 2 2 2 10
left_child=1 5 3 -2 -4 9 7 15 -9 10 16 -11 -13 -14 -3 17 -1 -5 19 29 -20 -21 23 -22 27 26 -24 28 -25 -19
right_child=2 14 4 6 -6 -7 -8 8 -10 11 -12 12 13 -15 -16 -17 -18 18 20 21 22 -23 25 24 -26 -27 -28 -29 -30 -31
leaf_value=-0.0042686003025733214 -0.015498920462762369 0.010453706009325405 -0.0106405170487338 0.016683367517543957 0.0085542812287092169 0.019565915290651652 0.014996531182118961 0.022376087228196478 -0.0001677253485346834 0.017846635747700929 -0.023937693201914068 -0.0047485096916237753 0.0016606929024379014 -0.011859231661524505 -0.0053476694051206959 0.01238464626007686 0.015926205570047553 -0.011391596160482298 0.012287684108596295 -0.035378470290452241 0.003253252749268297 -0.0079828921792795878 -0.026036608664851104 -0.0064625774374386926 0.013785571905059947 -0.00041607731310955005 -0.005442559416944194 0.00045892893458190177 -0.039771286231608916 0.0062777738182444075
leaf_count=399 46 39 38 32 485 29 62 53 45 40 41 418 1527 62 1231 68 22 47 95 25 1215 32 28 48 27 834 173 46 26 67
internal_value=0 -0.0194657 0.0212272 0.0123544 0.0715963 -0.00487484 0.014988 0.0120629 0.120243 -0.00719269 -0.0505247 0.00258717 -0.000918143 0.0113317 -0.0486243 0.0082259 -0.0321329 0.00530857 0.0033676 -0.0733748 0.00863363 -0.199985 0.00410584 0.0220394 -0.0646895 -0.0194937 -0.0831138 -0.110262 -0.181656 -0.0100697
internal_count=7300 3808 3492 2969 523 2538 2923 2861 98 2509 462 2047 2007 1589 1270 2763 421 2695 2663 171 2492 57 2397 1362 147 1035 201 120 74 114
shrinkage=0.1


Tree=30
num_leaves=31
num_cat=0
split_feature=2 0 63 26 81 2 2 91 63 65 1 0 1 90 26 111 64 140 122 32 74 97 1 24 128 56 64 104 79 104
split_gain=2.6008 1.60994 1.49862 1.24939 1.23066 1.07707 1.11665 1.05467 1.41958 1.29698 1.28255 1.53207 1.04157 1.67102 0.993373 0.865755 0.865737 0.86412 0.847137 0.952748 0.82288 0.812847 0.997723 0.948607 0.835204 0.807791 0.835238 0.977366 0.840882 0.774885
threshold=14.500000000000002 99.140000000000015 270.00000000000006 3.5000000000000004 1.0000000180025095e-35 94.500000000000014 112.50000000000001 3.5000000000000004 23400.000000000004 1.8100000000000003 294.00000000000006 94.815000000000012 92.000000000000014 1.5000000000000002 2.5000000000000004 0.11000000000000001 8114.5000000000009 363.50000000000006 1.0000000180025095e-35 1.0000000180025095e-35 1.0000000180025095e-35 2.5000000000000004 5.5000000000000009 1.0000000180025095e-35 0.095000000000000015 1.0000000180025095e-35 12.500000000000002 141480.00000000003 1.0000000180025095e-35 22187.250000000004
decision_type=2 2 2 2 2 2 2 2 2 2 2 2 2 2 2 8 2 2 10 2 2 8 2 2 10 2 2 8 2 8
left_child=2 5 -1 4 7 15 -7 9 10 12 11 29 13 25 20 -2 17 -3 -11 -20 -14 -15 23 -23 -24 26 27 -4 -28 -9
right_child=1 16 3 -5 -6 6 -8 8 -10 18 -12 -13 14 21 -16 -17 -18 -19 19 -21 -22 22 24 -25 -26 -27 28 -29 -30 -31
leaf_value=-0.0094498900912451354 -0.0073606542275021121 -0.0088636890045281688 0.0048107170568191977 0.0076082846959590229 0.017310215700822678 0.031706379252401266 -0.00094167556264437749 0.0080677738934521025 -0.022249115306079727 0.017019837961899459 -1.8069871348717994e-05 0.010525597747101463 -0.0011479260229393976 -0.018569817960840361 -0.018811795437200504 0.0014329348512852735 -0.00014536744453765165 -0.0027093858822387403 0.015136888089843772 -0.013138704822183803 -0.019760610628873111 3.5603804844281368e-06 0.0067402700437688744 -0.024735164194698296 -0.0052083634291634415 0.014330941310511269 0.0062744011083019097 -0.012559042601380497 0.026906018436926867 -0.00029324669406184407
leaf_count=130 140 629 92 307 46 22 20 159 22 71 663 388 2308 29 33 559 260 358 22 26 24 31 143 31 99 109 140 50 23 366
internal_value=0 -0.0308541 0.011547 0.0142074 0.0103108 0.00606243 0.161597 0.00876012 0.0297742 -0.00163311 0.0332957 0.0576055 -0.005551 0.0270012 -0.0158328 -0.00328299 -0.0527908 -0.0663143 0.100825 -0.00179058 -0.0133948 -0.0257349 -0.0104753 -0.123658 0.0185219 0.0694193 0.0430127 -0.013054 0.0918561 0.0223895
internal_count=7300 1988 5312 5182 4875 741 42 4829 1598 3231 1576 913 3112 747 2365 699 1247 987 119 48 2332 333 304 62 242 414 305 142 163 525
shrinkage=0.1


Tree=31
num_leaves=31
num_cat=0
split_feature=65 63 33 78 77 1 128 112 63 63 1 3 97 85 96 131 96 18 140 104 140 55 102 96 0 140 95 105 140 112
split_gain=2.12639 1.22226 1.2007 1.49455 1.18097 1.06463 1.02023 1.07379 1.86374 1.82236 1.43655 1.04216 1.16261 1.33177 1.08961 1.3741 1.64745 1.01384 1.03363 1.13684 1.27966 1.43674 1.08666 1.40411 1.21099 0.99217 0.966063 0.998323 0.938551 1.14561
threshold=0.22000000000000003 210.00000000000003 1.0000000180025095e-35 3.5000000000000004 2.5000000000000004 3.5000000000000004 3.6750000000000003 1962.5000000000002 41400.000000000007 7500.0000000000009 463.00000000000006 228.51000000000002 39.500000000000007 1.0000000180025095e-35 2.1650000000000005 1.0000000180025095e-35 1.5650000000000002 1.0000000180025095e-35 413.00000000000006 5120.0000000000009 322.50000000000006 1.0000000180025095e-35 1.0000000180025095e-35 2.0100000000000002 98.410000000000011 74.500000000000014 4.1750000000000007 1.0000000180025095e-35 85.500000000000014 1252.5000000000002
decision_type=2 2 2 2 2 2 10 10 2 2 2 2 8 2 10 8 10 2 2 8 2 2 8 10 2 2 10 10 2 8
left_child=1 -1 5 25 -5 -2 7 8 10 -9 11 12 14 -14 15 -7 -17 18 19 20 21 -3 23 -21 -24 -4 -16 -28 29 -27
right_child=2 17 3 4 -6 6 -8 9 -10 -11 -12 -13 13 -15 26 16 -18 -19 -20 22 -22 -23 24 -25 -26 28 27 -29 -30 -31
leaf_value=-0.013420526116685726 -0.014908327479232951 0.0016957752867556059 0.017641152876910239 -0.0035404117810029813 0.015021463918189207 0.0097097853215193843 -0.0032853601988376184 0.0034961545012187605 -0.029136460085975979 0.021489256793776387 -0.025058398848133431 -0.020792041062599138 0.0083584476217385857 -0.017087425518548117 -0.0073688324727404289 0.0046017133646079752 -0.023414407954987837 0.017262564413249495 0.0018912764424142857 -0.025619204735337964 -0.016600077695080213 0.022716441630784956 0.00059415390884457386 -0.006035497232322576 -0.0043389458672623967 -0.025328554727491882 0.0066896611547426687 -0.0033644063141944239 0.0066385709038462547 0.0047302538616349928
leaf_count=86 44 458 76 283 39 197 485 420 21 65 21 21 316 22 244 61 32 29 720 41 35 35 839 342 1223 21 162 253 677 32
internal_value=0 -0.0163436 0.0178226 0.0446667 -0.0129223 0.00501374 0.00793627 0.0187172 0.00421798 0.059076 0.00888859 0.0130544 0.0166601 0.0670221 -0.00127707 0.0498025 -0.0503824 -0.0136203 -0.0150829 -0.0233159 0.018764 0.0318811 -0.0324031 -0.0813193 -0.0233173 0.0676738 -0.0237552 0.00560314 0.0563532 -0.0717984
internal_count=7300 3808 3492 1128 322 2364 2320 1835 1350 485 1329 1308 1287 338 949 290 93 3722 3693 2973 528 493 2445 383 2062 806 659 415 730 53
shrinkage=0.1


Tree=32
num_leaves=31
num_cat=0
split_feature=2 3 63 24 65 140 96 63 114 63 140 61 128 118 65 93 94 54 42 140 50 1 111 112 97 65 78 121 1 93
split_gain=1.84196 1.20108 1.17208 1.05843 1.04868 1.02615 0.936357 1.79136 1.78136 1.30156 1.76853 1.28064 1.1979 1.22737 1.0757 1.0596 1.07926 1.04095 1.03513 1.26447 1.02404 0.980696 1.26369 0.947326 1.9885 1.07616 0.916008 0.903338 0.996878 0.883433
threshold=14.500000000000002 64.975000000000009 1010.0000000000001 1.5000000000000002 0.77500000000000013 462.50000000000006 2.4900000000000007 41400.000000000007 1.0000000180025095e-35 3900.0000000000005 68.500000000000014 1.0000000180025095e-35 0.47500000000000003 1.0000000180025095e-35 0.115 3.5500000000000003 3.3500000000000001 1.0000000180025095e-35 1.0000000180025095e-35 91.500000000000014 1.0000000180025095e-35 180.50000000000003 0.17000000000000001 405.00000000000006 18.500000000000004 0.58000000000000018 1.0000000180025095e-35 52200.000000000007 58.500000000000007 1.0000000180025095e-35
decision_type=2 2 2 2 2 2 8 2 10 2 2 2 10 10 2 10 10 2 2 2 2 2 10 8 8 2 2 10 2 10
left_child=2 -2 -1 5 -5 6 8 9 11 14 -11 15 -12 -14 18 16 -4 29 19 -8 -17 -21 -23 24 25 -16 -10 28 -25 -18
right_child=1 -3 3 4 -6 -7 7 -9 26 10 12 -13 13 -15 23 20 17 -19 -20 21 -22 22 -24 27 -26 -27 -28 -29 -30 -31
leaf_value=-0.0022234873092495068 -0.0045384992770813566 0.00051459811553352937 0.0025056132287447005 -0.025121990898279128 -0.0024671397498986199 0.0066630438163726704 -0.021534229477973506 -0.024688327565257039 0.003044485591351986 -0.021147405279667252 0.016591776681705885 0.028990052631971516 -0.00034436477747346674 0.022590678403919033 -0.0074979208910531591 -0.01665638597597453 0.0034337971067493578 0.0267021623129646 0.0019643382129537071 -0.010500861232667516 0.0057539061594166253 0.016425709562754492 -0.0064453057141318068 0.010220552371027409 0.0070468728271263995 -0.028900069730090246 -0.021356440242379905 -0.0015285670526928013 0.0021257603132006303 0.013916631482263459
leaf_count=944 1224 764 473 27 84 411 56 28 25 21 119 22 140 28 146 44 182 33 161 131 38 40 61 178 95 28 40 566 1047 144
internal_value=0 -0.0259656 0.00971756 0.016623 -0.0797778 0.0191367 0.0140613 0.00480594 0.0403664 0.00730764 0.0686576 0.0514831 0.089155 0.0347814 -0.000223561 0.0457444 0.0564336 0.0977749 -0.0445748 -0.0804745 -0.0627113 -0.0479202 0.0261252 0.00944328 -0.0458902 -0.109419 -0.119715 0.0177541 0.0330198 0.0806425
internal_count=7300 1988 5312 4368 111 4257 3846 2845 1001 2817 308 936 287 168 2509 914 832 359 449 288 82 232 101 2060 269 174 65 1791 1225 326
shrinkage=0.1


Tree=33
num_leaves=31
num_cat=0
split_feature=65 37 64 112 93 3 140 65 18 64 27 2 77 84 121 104 90 65 3 3 1 140 112 106 80 89 91 0 111 2
split_gain=1.5246 1.04302 0.894897 0.864466 1.93819 1.95859 1.26767 0.847703 0.810088 0.791869 1.47929 0.907528 0.741439 1.11731 1.58821 2.14095 0.923662 0.890094 0.845121 1.35756 0.939631 0.83475 1.14396 0.809016 0.799028 1.51011 1.33916 1.11827 1.25406 1.15707
threshold=0.075000000000000025 1.0000000180025095e-35 45.500000000000007 499.50000000000006 2.4650000000000003 7.915 45.500000000000007 3.7550000000000003 1.0000000180025095e-35 307.50000000000006 2.5000000000000004 31.500000000000004 3.5000000000000004 1.0000000180025095e-35 37296.000000000007 170400.00000000003 1.5000000000000002 0.24500000000000002 60.940000000000005 67.520000000000024 153.50000000000003 266.50000000000006 658.00000000000011 6.5000000000000009 1.0000000180025095e-35 2.5000000000000004 1.5000000000000002 98.285000000000011 14.210000000000003 14.500000000000002
decision_type=2 2 2 10 10 2 2 2 2 2 2 2 2 2 10 10 2 2 2 2 2 2 10 8 2 2 2 2 8 2
left_child=3 7 -3 6 5 -5 -1 8 12 10 11 -6 18 16 17 -16 23 -15 24 -20 -21 -22 -23 -14 25 26 -2 -27 -29 -30
right_child=1 2 -4 4 9 -7 -8 -9 -10 -11 -12 -13 13 14 15 -17 -18 -19 19 20 21 22 -24 -25 -26 27 -28 28 29 -31
leaf_value=-0.017235283839252238 -0.029424629970786292 0.005444623243063689 0.026973919899990928 -0.002254304861915963 -0.0035377040098988886 0.039171522423624996 -0.0031166080816775322 0.016699478583353938 0.019344202036280997 0.0035724666997722539 0.0029202449625441293 -0.015306967493988766 -0.0029141361999879848 -0.008834105165254685 -0.043125569929834462 -0.0039350122233609798 0.010221654415472133 0.012286319883839627 0.010519926113775 0.021859330794818346 -0.00078739723471218351 0.016789439500280424 0.0021626704413904986 0.0069164856499039215 0.0029204162676056884 0.0042996109625206835 -0.006399097720127464 -0.0048319497876268686 0.0037851312485443368 -0.0044230199232697482
leaf_count=67 28 75 26 21 169 25 1251 33 23 261 218 107 164 31 20 46 241 56 160 21 1154 64 325 171 412 344 258 776 488 265
internal_value=0 0.0092422 0.109868 -0.0225974 0.00331158 0.202597 -0.0383433 0.00724156 0.00619701 -0.00883033 -0.0323705 -0.0810043 0.0053398 0.0348268 -0.0411337 -0.158109 0.0550038 0.0476065 0.000334904 0.017465 0.00848965 0.00563017 0.0456913 0.0210388 -0.0111518 -0.0188529 -0.0865335 -0.00851833 -0.0201082 0.00896472
internal_count=7300 5181 101 2119 801 46 1318 5080 5047 755 494 276 5024 729 153 66 576 87 4295 1724 1564 1543 389 335 2571 2159 286 1873 1529 753
shrinkage=0.1


Tree=34
num_leaves=31
num_cat=0
split_feature=65 104 129 129 140 140 2 96 89 94 27 140 117 30 95 20 140 97 91 3 106 43 3 94 97 111 97 96 89 64
split_gain=1.28081 0.993416 1.27662 1.24439 1.10398 1.36793 1.06861 0.9036 1.01671 0.814503 0.787345 1.37848 1.18591 0.981562 1.27917 1.08708 0.901495 0.928466 0.860924 0.842947 0.796198 0.796096 0.876681 0.908504 0.719965 2.24369 1.26361 1.18465 1.01006 0.884763
threshold=0.35500000000000004 6196.5000000000009 377.50000000000006 772.50000000000011 15.500000000000002 61.500000000000007 118.50000000000001 2.0950000000000002 9.5000000000000018 4.2600000000000007 1.0000000180025095e-35 74.500000000000014 1.5000000000000002 1.0000000180025095e-35 3.4850000000000008 3.5000000000000004 427.50000000000006 38.500000000000007 3.5000000000000004 64.975000000000009 43.500000000000007 1.0000000180025095e-35 34.415000000000006 4.8150000000000004 1.5000000000000002 0.015000000000000001 6.5000000000000009 2.7750000000000004 4.5000000000000009 29.500000000000004
decision_type=2 8 10 10 2 2 2 8 2 8 2 2 8 2 10 2 2 10 2 2 8 2 2 10 10 10 10 10 2 2
left_child=1 2 24 -4 -3 7 10 -6 9 -9 13 -12 -13 16 19 20 -7 -18 -14 -15 21 -16 -23 -24 25 -1 28 -28 -26 -29
right_child=-2 4 3 -5 5 6 -8 8 -10 -11 11 12 18 14 15 -17 17 -19 -20 -21 -22 22 23 -25 26 -27 27 29 -30 -31
leaf_value=0.033182455656620174 0.0018204294613863789 0.019328181570395828 0.017118670583091754 -0.0084215514245443053 0.0031068842959523736 -0.0012236764826258214 -0.014947487874464555 -0.018284320571429789 -0.031245411001145841 -0.0055098159794397363 0.019449453243287281 -0.0062434915904374571 0.00047764782946574814 -0.003542213170935395 0.0015942022984381764 -0.024940131265958329 0.027484819151106333 0.0034705129765864951 0.00783246891911475 0.008739393528641972 0.0015176200173196517 -0.0059658587480847982 -0.013055458697764314 -0.034762693980648636 -0.0035571902588604383 -0.0058414563498980204 0.010618672983484252 -0.0075056229802361865 -0.022243376400990365 0.0028157875569498479
leaf_count=26 2527 25 93 24 70 1535 55 62 20 256 40 209 724 294 40 42 21 69 204 69 70 69 51 31 112 34 122 127 39 240
internal_value=0 -0.00963802 0.0221078 0.118797 -0.0161942 -0.0175264 -0.0111782 -0.0723423 -0.0937588 -0.0800044 -0.00898489 0.0120368 0.00561786 -0.0197848 -0.052117 -0.100086 -0.00653352 0.0907385 0.0209444 -0.0120769 -0.076058 -0.109495 -0.142723 -0.212619 0.005947 0.110689 -0.00387256 0.0208191 -0.0838342 -0.00755927
internal_count=7300 4773 817 117 3956 3931 3523 408 338 318 3468 1177 1137 2291 666 303 1625 90 928 363 261 191 151 82 700 60 640 489 151 367
shrinkage=0.1


Tree=35
num_leaves=31
num_cat=0
split_feature=2 0 2 78 77 140 2 7 1 63 53 1 140 121 112 3 113 112 0 106 91 104 1 140 49 93 140 0 1 65
split_gain=1.08829 0.943473 0.933536 0.867607 0.86232 0.877649 0.843407 0.718389 0.713932 0.969652 0.939467 0.869649 0.888861 1.49436 1.49414 1.10682 0.862206 1.15281 0.84993 1.71021 2.12192 0.860395 0.823807 0.739006 0.819204 0.719211 1.01419 0.928269 0.902801 1.74271
threshold=16.500000000000004 99.140000000000015 94.500000000000014 1.5000000000000002 2.5000000000000004 61.500000000000007 112.50000000000001 1.0000000180025095e-35 3.5000000000000004 5370.0000000000009 1.0000000180025095e-35 7.0000000000000009 263.50000000000006 82800.000000000015 750.50000000000011 32.830000000000005 3.5000000000000004 1027.5000000000002 92.940000000000012 2.5000000000000004 2.5000000000000004 6916.5000000000009 429.00000000000006 395.50000000000006 1.0000000180025095e-35 2.9450000000000007 47.500000000000007 92.320000000000007 319.50000000000006 0.55500000000000016
decision_type=2 2 2 2 2 2 2 10 2 2 2 2 2 8 8 2 10 10 2 10 2 10 2 2 2 10 2 2 2 2
left_child=3 2 -2 8 5 -5 -4 -6 -1 10 11 -10 13 18 15 -15 -14 -18 19 20 -13 -22 -20 24 -11 26 -16 -27 29 -29
right_child=1 -3 6 4 7 -7 -8 -9 9 23 -12 12 16 14 25 -17 17 -19 22 -21 21 -23 -24 -25 -26 27 -28 28 -30 -31
leaf_value=-0.007232670716816424 -7.6335930841750895e-05 -0.0037775450078453687 0.028810071962123568 -0.0073874461722829134 0.00031647653349909218 -0.00064804141461304824 0.00043631293345242745 0.0096476770566002526 0.016773013938089006 0.0074430634642112638 0.020463179940214526 -0.033090169878789426 0.0086183520708912591 -0.038251226732418653 -0.018960865074768664 -0.0073844660234709206 -0.016879987064749004 0.0027799644017774254 0.0049767890958569358 0.0067737150418027987 0.0039513602277094668 -0.019081665275861387 -0.0051607203577737236 -0.0082588420478040703 0.027145243549476502 0.009356484446713392 0.00072425645519166425 -0.0081713577754394997 0.00070707885376912992 -0.038844153761035866
leaf_count=82 661 1191 22 213 203 2082 20 139 36 256 26 33 260 21 28 26 32 439 673 89 55 23 91 27 23 24 401 59 38 27
internal_value=0 -0.0206281 0.00842233 0.00722709 -0.00575456 -0.0127353 0.152988 0.0410898 0.0195899 0.0223949 0.0155848 0.0134977 0.0111034 -0.00217973 -0.0403081 -0.21176 0.0399592 0.0144426 0.0225009 -0.0355334 -0.118336 -0.0284043 0.0376931 0.0753848 0.0906726 -0.0263424 -0.00560553 -0.0864512 -0.121293 -0.178012
internal_count=7300 1894 703 5406 2637 2295 42 342 2769 2687 2381 2355 2319 1588 624 47 731 471 964 200 111 78 764 306 279 577 429 148 124 86
shrinkage=0.1


Tree=36
num_leaves=31
num_cat=0
split_feature=65 37 96 96 65 0 0 64 65 27 0 0 27 1 64 65 31 96 134 111 112 65 133 32 34 136 10 3 93 63
split_gain=0.957187 0.788495 0.691743 1.05459 0.945258 1.50993 0.745484 1.37631 1.49068 1.07645 0.874747 0.872185 0.71341 0.69054 0.897288 1.25325 0.751734 0.918808 0.690385 0.712806 0.75596 0.688251 0.676556 0.700619 0.675944 0.801739 0.715217 0.674494 0.684804 1.42062
threshold=0.075000000000000025 1.0000000180025095e-35 4.3650000000000011 4.3150000000000004 1.8100000000000003 95.825000000000017 97.110000000000014 1.0000000180025095e-35 0.46500000000000002 1.5000000000000002 97.480000000000018 97.89500000000001 1.5000000000000002 274.50000000000006 29.500000000000004 0.115 1.0000000180025095e-35 2.6650000000000005 3.5000000000000004 0.27000000000000007 236.50000000000003 0.14500000000000005 1.5000000000000002 1.0000000180025095e-35 1.0000000180025095e-35 4.5000000000000009 1.0000000180025095e-35 5.4350000000000014 4.955000000000001 3330.0000000000005
decision_type=2 2 10 10 2 2 2 2 2 2 2 2 2 2 2 2 2 10 2 10 10 2 2 2 2 2 10 2 8 2
left_child=22 2 3 4 6 -6 7 8 -2 13 -8 -12 18 16 15 -15 27 -18 19 20 21 -13 -1 -24 25 -21 -27 -9 -29 -30
right_child=1 -3 -4 -5 5 -7 10 9 -10 -11 11 12 -14 14 -16 -17 17 -19 -20 24 -22 -23 23 -25 -26 26 -28 28 29 -31
leaf_value=-0.0024646038907630129 -0.028508022554411455 0.0094814205058103458 -0.0034494489574884374 0.018445802600506475 -0.013826984019639591 0.013791135878743095 -0.0088165364063100028 0.012396125113379888 0.0044671744036559871 0.024679381811343458 0.016451953421346845 -0.0059280192172352945 -0.013759937709944912 -0.0093504878672926381 0.0022009410116029296 0.015331868203874263 0.027725607430076474 0.00052668704323608569 -0.01723243924295631 -0.0014902817632264662 0.014093800838704089 0.0033274644097049302 0.018208671622926855 0.0012071819793612734 0.005668381333742172 0.0023429058047688823 0.024425659743560989 0.00096635509640655322 0.0051459907421043949 -0.017636767983053542
leaf_count=1855 29 101 397 34 24 113 116 44 26 23 32 94 38 24 231 144 23 27 23 2092 56 553 27 237 156 44 22 604 49 62
internal_value=0 0.00732311 0.00558362 0.00898123 0.0076979 0.0895293 0.00521322 0.0255717 -0.129197 0.0324867 -0.00290242 0.000277801 -0.00142972 0.0284063 0.062451 0.118058 0.0116155 0.130382 0.000272405 0.00158819 0.0294752 0.0198277 -0.0179052 0.0294597 -0.00688397 -0.0114792 0.0970382 0.00379159 -0.00360346 -0.0757951
internal_count=7300 5181 5080 4683 4649 137 4512 1286 55 1231 3226 3110 3078 1208 399 168 809 50 3040 3017 703 647 2119 264 2314 2158 66 759 715 111
shrinkage=0.1


Tree=37
num_leaves=31
num_cat=0
split_feature=64 104 91 121 78 95 2 63 73 140 94 89 140 63 94 137 64 13 105 112 114 48 52 63 129 0 140 105 97 98
